-0.2847715     0.1116886      0.1848232      0.2466781      -4.336986E-02  -0.282827      0.2784662      -0.0975158     0.211313       0.1545454      0.3059138      -0.1431329     -0.0927086     -8.402313E-02  0.1068023      0.1872351      0.2200354      -0.2872189     -9.572131E-02  4.631794E-02   -6.807379E-02  0.2704825      -0.1503617     0.2176486      0.1972102      -0.1905027     -8.075643E-03  0.1028038      1.649037E-02   1.969759E-02   0.2517083      -6.179083E-02  0.2041414      -0.1731956     0.2564562      0.1551202      -0.1905071     0.2684065      -0.2553724     3.571423E-03   -0.2008302     0.1172673      -0.144287      0.1556127      -0.2479728     0.1881324      6.726585E-02   5.023652E-02   -0.1470725     7.809966E-02   -0.0896767     -5.703247E-02  -0.2764642     -0.2097747     0.1811938      0.2157125      0.2806626      0.2986634      0.2438993      0.2309156      0.2141891      -8.825038E-02  0.1613964      0.1003353      0.18663        0.2618402      0.3054539      -0.2026861     6.172093E-02   0.2842728      0.1307313      -3.531631E-02  -3.183338E-02  -0.0334295     0.1236402      0.2441261      5.349099E-02   0.1829135      -8.753327E-02  0.1512826      0.2305679      0.1222983      0.2420098      -0.300217      -0.3409618     -6.739974E-02  0.2172776      -0.3125104     0.0695285      -2.197153E-03  6.090766E-02   0.186843       -0.2243728     -0.2317814     3.899123E-03   0.2331989      -0.1963621     -0.1807826     -0.152134      0.2398845      -0.1975601     -9.054912E-02  0.2815017      0.1193119      -0.2853176     6.025526E-02   3.890827E-02   -9.068862E-02  0.1215448      7.178083E-02   -0.1400883     -9.451894E-03  3.455711E-02   2.583364E-02   0.1602671      -0.1544926     0.1665395      -0.1089163     -3.324292E-02  -5.851961E-02  -7.370366E-02  7.885595E-02   0.1026141      6.837609E-02   0.1200069      5.311365E-02   -2.396847E-02  -0.2304256     3.126732E-02   -0.2400535     7.120298E-02   0.1125106      -2.420614E-02  0.1376627      -8.259382E-02  0.2330435      0.2226208      0.1051211      0.2324955      0.1607664      -0.1704219     0.2247615      -0.2973733     0.1474255      0.1836883      -0.1414976     0.3358132      0.181553       0.1736463      -0.1063412     -0.1576705     -5.913506E-02  -9.042193E-02  -0.1453275     0.2117836      -4.543257E-02  0.1693914      -0.2406001     -1.569829E-02  0.2544057      0.2973667      2.528517E-02   5.618934E-02   -0.1546539     0.044209       0.207612       -0.107849      8.849775E-02   -0.2146021     0.1521716      -0.1568493     9.583943E-02   0.1811385      -0.1505888     -0.2079812     8.594533E-02   -0.25942       -0.1364323     -3.859697E-02  -0.1621027     -0.2082376     8.621754E-02   3.629918E-02   -0.1436608     0.240537       -0.2804413     -1.950152E-03  -5.679318E-02  3.297237E-02   -0.2526577     -0.1865592     -0.1992945     0.1323024      0.3003211      -6.564918E-02  -3.829862E-02  -0.2833712     -0.2439989     9.430476E-02   -0.193606      0.1218914      0.2289487      0.1975373      0.2790173      -0.1693091     0.2515753      5.129955E-02   -0.2049688     0.1364504      -0.1103767     0.1290365      0.158974       -0.1132305     6.676445E-02   4.253188E-02   6.150712E-02   0.267602       -0.1582099     0.2247707      0.1574894      -0.2274545     -0.1472866     -1.785174E-02  0.1298412      0.114171       -0.2402245     0.2297155      -0.2455719     0.2018712      0.2141179      -0.1686324     9.324566E-02   -0.0958255     0.1847071      1.142595E-02   -0.1985057     0.1532246      -0.1106151     -0.0663545     0.0919322      -0.2343961     0.1246342      -0.2753464     -0.2875182     -0.1247602     0.1230493      0.1601818      1.221917E-02   0.1539461      0.296515       2.788248E-02   0.1736315      -8.473313E-02  0.1202948      0.1109831      0.0375415      -0.1740013     -0.2441623     9.268945E-02   -0.1962646     -0.1751945     0.1477707      0.2611669      -6.846572E-02  0.13995        -0.1767617     0.2879011      -0.1740874     -0.2392346     -0.2891154     7.809681E-02   -0.2664907     -0.1126225     8.359269E-02   -0.1493995     0.2724693      -0.2409029     0.1925755      0.1295535      5.822375E-02   0.2851866      -0.1193941     0.2987948      8.486501E-02   -0.2122532     0.0900998      0.2000031      1.317484E-02   0.2248329      0.2195826      0.1945397      -5.093906E-02  0.2528247      0.1996985      0.2776134      -0.2106052     -2.229377E-02  -0.2622791     -9.714957E-02  0.1161931      -0.0971862     -0.2530503     0.1243416      0.1772424      8.105411E-02   0.2460738      0.1779016      -1.218604E-02  0.1199286      -0.2037019     -0.2024567     -0.2132237     9.865109E-02   0.2158788      -0.170632      0.1272897      -9.729607E-02  0.1579791      -4.595172E-02  0.1402539      0.1389904      -0.1538957     -0.1629231     0.2149999      -0.299176      -0.0394879     0.12566        4.005555E-02   -0.2487106     0.1696616      1.048311E-02
6.226941E-02   2.606586E-02   -0.2191748     -7.929625E-02  -0.1980987     0.1447188      6.528825E-02   -0.1548662     8.527122E-02   -0.0242661     0.1447012      6.903595E-02   -0.1690979     0.1987857      0.1986886      3.790033E-03   -0.1799158     -0.2757378     0.2556505      -0.2915403     -0.0291617     0.2051485      0.1180792      5.069421E-03   0.1788407      0.2298134      -0.2085609     -0.2617372     -9.165174E-02  -0.175664      0.2354785      -0.2926206     -3.324381E-02  3.095493E-02   0.1158452      -0.2427809     -0.200298      -0.240674      0.267736       -1.456123E-02  4.538072E-02   -0.1177585     9.131316E-02   0.1129418      -0.1099119     5.183795E-02   4.540239E-02   -8.442336E-02  -0.1017303     0.2176347      -0.0689569     0.2183213      -0.1325373     1.519015E-03   -0.2686528     -0.2991778     8.162867E-02   8.866952E-03   0.1833147      8.251931E-02   -0.1379399     0.2434553      4.212122E-02   -0.1655001     0.1277439      0.235787       -0.2220243     2.969664E-02   -8.249107E-02  -0.075167      -0.2457364     -7.253297E-02  6.589876E-02   -9.43228E-03   -0.1655698     -2.139389E-02  -4.305165E-02  0.0341213      0.1108256      -9.425283E-02  0.2142129      0.1374575      0.1983688      -6.922137E-02  -2.552543E-02  8.491982E-02   -0.298062      5.52729E-03    0.2873085      -2.913475E-03  -0.2507596     -6.423282E-02  0.1175271      -2.504075E-02  7.429279E-02   -4.873319E-02  0.2864391      0.2148578      0.2334644      0.1906427      -5.846078E-02  0.2082505      -2.02963E-03   0.2638645      8.025862E-02   -0.1027681     0.2195738      -6.842586E-02  -0.1759185     -0.1564609     -0.1089592     0.1550949      -0.1939734     -0.1712527     0.1467112      4.821559E-02   0.1566         -0.1293463     -5.895308E-02  -0.2002796     -0.1358385     -0.2117726     0.2244532      -0.1686364     0.2293246      -5.912394E-02  0.2091903      0.1842143      7.717605E-02   -0.113722      4.045419E-02   0.2265968      -0.1846127     0.2879567      -3.847623E-02  4.380988E-02   -7.307515E-02  0.2146502      0.309467       0.1537302      -9.246844E-02  -0.1353637     0.2838643      0.1014749      0.0945681      2.740638E-02   0.1710934      -2.062323E-02  -0.1671917     -0.1454142     0.113585       9.753807E-02   0.0529353      -0.1984704     -0.1679793     0.2660688      -0.1109939     -9.924187E-02  6.746695E-02   0.2221872      0.2572413      -0.2743281     0.1962197      0.1052104      0.224569       -5.898353E-02  -2.700292E-02  -0.2606906     -9.145304E-02  0.1093304      -0.2136299     0.264176       -0.2045693     -9.077736E-02  0.1615834      -0.1801509     -5.808207E-02  0.1986464      2.508309E-02   0.221111       -0.1390369     0.27692        0.0858116      0.2324163      0.1676858      -0.2560838     0.2968934      -0.0958914     0.1490871      -0.1635829     0.1949186      0.1868478      0.1547793      -0.1808828     -0.1906352     -0.2297742     -0.2495517     0.2018191      9.171611E-02   9.317373E-02   0.2229024      -0.2065571     0.1506912      -0.2620779     0.259878       -0.0544854     -9.070986E-03  -0.1903822     -0.1492945     4.563359E-02   9.768452E-02   6.542482E-02   -3.908894E-02  2.600553E-02   0.1219535      -4.018076E-02  5.676602E-02   -0.2803894     -0.12624       0.2659406      -0.1399928     -0.2739755     0.2882575      0.1912847      0.287093       0.1955515      -6.792779E-02  0.1813856      -6.677862E-02  -0.2097726     0.1574052      0.2609149      -0.2885819     -0.1583646     -3.012343E-02  -0.1308703     -2.990624E-02  8.793195E-02   -0.1708106     5.118115E-02   0.2062132      -0.2458146     0.1736853      -0.0850475     8.712076E-02   1.607041E-02   0.2348672      0.2398761      -3.435169E-02  0.199135       -0.2132111     -0.146965      -0.1486985     0.1899529      0.257473       0.1652516      -0.2888303     -9.413371E-02  -0.2844026     -3.931907E-02  0.2738234      1.851555E-02   -0.2340705     0.3056         0.0774407      4.061418E-03   0.1137829      -7.305768E-02  0.121953       -0.1907974     0.1062498      -0.2707572     6.519669E-02   -0.1827471     6.311622E-02   9.097456E-02   -0.2908976     0.1210987      0.0818426      0.1339653      5.678479E-02   0.2261965      7.191854E-02   0.2189659      -0.1559649     -0.2382733     -0.1666219     0.2194128      -0.1497391     -0.2370039     0.2398549      -9.97939E-03   -0.2907484     -0.2478674     -0.1704114     -0.2103122     -0.1159368     -0.1023499     -0.2121799     -5.232399E-02  0.2499191      -0.0475631     -0.1667684     -6.135136E-02  0.1570452      1.202124E-02   0.229136       -0.2700613     -0.2315714     0.1614948      0.2925108      -2.721946E-02  -0.2322855     -9.304789E-02  0.2275796      -0.2946166     -0.1690939     -0.1831751     0.233311       0.1371227      0.1555071      0.290936       0.1274178      -1.793573E-02  -0.1593524     -0.1241585     3.128453E-02   -8.883633E-02  0.0124424      4.584185E-02   -4.109928E-02
-0.2888298     -0.2556688     -0.1294504     1.059297E-02   -0.2994873     3.164074E-02   5.038301E-02   -0.1262825     -8.603008E-02  -9.684446E-02  0.2272762      0.1683563      0.1523708      0.1326077      -5.655468E-02  2.904657E-02   9.324931E-02   0.2184424      -7.383954E-02  0.1481277      -1.510741E-02  -2.062746E-02  0.1475417      -0.1444055     0.2730963      -0.2885318     -0.2272841     -0.3038895     -0.2286172     -0.1621518     -0.1961438     9.508042E-02   0.2984802      -7.433394E-02  7.515793E-02   -0.1042099     -0.2383881     -8.942709E-02  8.039475E-02   -6.252971E-02  -0.2477218     -1.893031E-02  3.926678E-02   -0.1682936     9.836269E-02   -0.2351464     0.1696066      0.2237159      -0.2904519     1.468239E-02   -7.653999E-02  0.286652       9.535649E-03   -0.2794612     0.1608431      -0.1418209     0.2141869      4.268838E-03   1.130384E-02   0.2031434      0.2836983      -3.826106E-02  0.2439201      -0.1694019     -0.1973056     0.2221286      -6.541429E-02  9.026244E-02   -0.165673      -0.2428181     0.1061435      0.2418386      0.2430232      -9.308749E-02  2.653403E-02   -3.862537E-02  0.2168057      0.2790008      0.1115315      9.967105E-03   -0.0589027     -6.724573E-04  -0.2857039     0.2995667      0.15269        0.1710261      0.2692057      0.2168241      0.2550721      0.0424854      -0.2771091     0.2873526      -0.1892048     8.330593E-03   0.2047393      -0.1029436     0.2239998      -0.2780569     -0.1640906     -0.1114304     4.787193E-02   -0.2063292     -0.1834752     -0.1738933     -0.1271513     -0.1591662     0.2165264      -0.2320547     0.2574474      -0.1754087     -0.1833449     -0.1099023     5.592197E-02   -0.2314471     0.2133351      0.2073385      0.2329833      -9.068567E-02  0.2429159      0.1123146      3.40897E-03    0.3365512      -0.2891413     0.212633       -1.820694E-02  -0.1266261     0.310135       0.2077119      -4.934153E-02  -0.2556895     0.1433233      0.1142119      0.1965551      3.249772E-02   -0.0636469     -0.1800303     -0.1576487     -0.1278897     -9.614853E-02  -3.991525E-02  2.716987E-02   -0.2055701     7.570654E-02   0.1545497      0.1527728      3.841108E-02   4.031347E-02   -0.3506577     -0.1614816     -0.2850532     0.2971883      -0.1469411     -0.1011604     2.73491E-03    0.2849339      -2.798729E-02  3.269804E-02   0.0476447      -0.2653972     -0.2645053     -0.1732907     -7.331728E-03  -6.723715E-02  -0.2160605     8.935766E-02   0.1085542      -1.491157E-02  5.655271E-02   -7.285661E-02  0.322237       0.2227841      0.2835856      0.051617       0.349705       0.336007       -0.0826119     -0.2585727     7.065015E-02   -1.918358E-02  -0.2658673     -0.2457986     -2.069977E-02  2.758543E-02   3.839753E-02   -0.2386858     -0.2661719     -0.26566       0.1604602      -0.0856457     -6.973799E-02  0.1971183      -1.619882E-02  0.1375162      9.461709E-02   6.309964E-03   6.998604E-02   0.1398159      -9.480243E-02  -0.2392281     -0.1232892     -0.2286419     -4.623207E-02  -0.2112706     -0.1817024     0.1432648      -0.3255932     -0.0567875     -0.1679296     -0.2411387     4.437758E-02   0.2206311      0.1888033      0.0657604      0.157155       0.1463421      0.1490818      0.2090875      -0.1789414     -2.383834E-03  -0.2490639     0.1387098      0.1795326      -0.1379133     -0.2628443     -0.2604465     -0.1918636     3.612151E-03   -0.2316298     -0.2029037     -0.2003639     5.106287E-02   1.959575E-02   2.008192E-03   -0.2953841     0.2266843      -5.485518E-02  -6.089715E-02  -0.1506069     0.1223159      -9.727621E-03  -0.203907      0.2440996      -0.2203687     0.1238483      6.386831E-02   0.1642605      -0.3475128     7.537752E-02   7.032135E-02   -0.2682754     -0.1066604     -0.24248       -0.1186724     0.1023058      0.1554953      0.1594723      0.1258431      -8.208878E-02  -3.132822E-02  0.2204736      0.2883978      -0.1181949     0.1133615      0.0257675      -3.428887E-02  -0.186233      8.700587E-02   0.1897734      -0.2659456     -6.696731E-02  0.1541461      0.0952086      -0.1085208     -0.2643613     -0.1443198     -0.257496      7.710557E-02   0.2885819      0.285241       0.2189024      0.2390091      -2.330887E-02  0.1172316      0.2588015      -0.1689291     -7.504807E-02  -0.2825495     -0.2766351     0.2861751      0.2084994      5.644683E-04   0.1071715      3.746123E-02   -0.2398242     -0.2411975     -0.228898      -0.2589465     1.455733E-03   0.2028962      -0.2871456     0.227488       -0.1324717     -0.1960845     -8.273873E-02  -0.2183508     0.114362       -4.289377E-02  0.1427259      5.847652E-02   0.280755       0.2543504      3.203528E-02   0.1428358      -0.134138      -4.457839E-02  7.781304E-02   -0.2903318     8.032167E-02   -0.1591327     -5.472274E-02  0.2117954      -0.1859035     0.1143071      -5.371563E-02  -8.594318E-02  0.1651204      -7.671438E-02  -0.241789      -0.1071108     -0.228074      0.1671896
0.1859085      -3.796808E-02  0.172866       -0.234373      9.447616E-02   0.183484       -0.2541307     -0.2694205     -0.0703389     -6.661329E-02  -3.984793E-02  -0.1179755     3.877284E-02   0.2863595      -0.1746409     -0.2498028     -0.2422468     0.2131321      -0.1732322     6.776025E-02   -0.1998224     0.1240486      2.379528E-02   -0.2507017     -0.1317455     -0.2239503     3.106894E-02   0.3156781      0.2974061      4.445038E-02   8.051068E-02   -0.1070009     -0.2201453     -0.1105899     -4.798425E-02  4.391547E-02   8.059811E-03   0.2672697      0.1361859      -0.1611346     0.1671383      -0.1485025     0.0659298      0.41074        -0.1482924     0.2062536      0.1118168      0.2897458      0.1863574      -0.1617917     0.2167807      5.553902E-02   -0.24184       0.1878917      -0.1700493     0.1041743      -0.1667767     2.308056E-02   0.127357       -0.1789052     0.2569583      -6.565447E-02  -0.0352808     -0.2353087     -9.009591E-02  0.336485       0.4160097      0.4455728      0.2099173      0.3519345      -5.934956E-02  0.194529       -0.2065684     0.1433548      0.1776106      0.1164188      8.100608E-02   0.1234419      0.1006977      0.1016493      -8.678726E-02  0.4031993      0.4221552      0.4390005      0.4496935      9.058616E-02   0.1480503      0.2061045      0.1991395      -0.2079468     -5.950771E-03  -0.1782761     0.1274475      -0.0142122     0.1109121      -0.1405836     -0.1131026     5.238581E-02   0.125819       -6.082369E-02  -0.2050593     0.3421412      0.1750982      0.2343952      0.1474301      -0.1924828     0.0785528      -0.263149      0.1719999      0.2587639      0.2668484      8.412575E-02   -2.265976E-02  0.2749478      0.1007235      -9.722366E-02  -0.3461194     2.953317E-02   0.2348495      0.3046101      0.1740294      -4.306266E-02  0.1031603      0.1488509      4.622808E-02   0.1151401      -0.3145305     -0.1361612     -0.2876596     -0.3292201     -8.956741E-02  -0.4384562     7.456338E-02   -1.653252E-02  2.840886E-02   -8.326868E-02  -0.1848186     -2.111128E-02  0.1711442      0.2229345      -0.243882      0.1445514      -0.0431009     -0.2326384     5.256917E-02   -0.1937035     0.1023777      3.562564E-02   0.1132611      -4.814144E-04  -0.1496264     0.2765376      0.2235292      -8.294273E-02  9.260636E-02   0.1968435      -0.3408229     -8.898444E-02  6.245176E-02   -0.2695005     0.0108231      -0.3098519     0.1279018      0.1569394      0.3299805      9.932279E-02   8.788771E-03   0.2593678      0.344246       -0.2507522     -0.228185      0.0928148      -8.530622E-02  0.1689495      2.532832E-02   -0.1817416     -0.1148144     -0.0119927     3.165721E-02   0.145056       -0.294722      -1.795266E-02  0.1573393      8.980967E-02   0.1962285      -0.1646889     -5.553993E-02  5.468903E-02   -0.1229365     -0.151953      -0.3235795     -0.2259192     -3.527021E-02  -0.2537014     0.311361       -0.1714087     -9.480903E-02  7.490923E-02   -9.634928E-02  0.2261624      0.121669       -8.283368E-02  0.1357274      0.2122244      -0.1692351     -0.2692194     -0.2318523     9.164099E-02   0.1243321      -0.2369938     0.1311575      0.2540974      -7.714426E-02  0.2295278      -1.433391E-03  0.1490808      -0.1762329     1.573497E-02   -0.141994      -8.83183E-03   -0.2981198     0.1284279      0.2902716      1.434815E-02   -6.097257E-02  0.2572761      -0.0999871     -0.1490247     -0.2894407     -0.1524862     3.786036E-02   0.4029962      -7.867406E-02  -0.2411056     0.1687806      -5.041504E-03  5.829426E-02   -1.251571E-02  0.1029511      -0.247445      0.1660499      0.156326       -0.2607915     -0.2282818     -0.1157653     0.2428643      7.431825E-02   -6.619401E-02  -1.957641E-02  0.1666334      -0.1859319     0.2102969      -7.265278E-02  -5.937342E-02  0.1376124      0.0474857      -0.1559465     1.755118E-03   -0.1119162     7.594287E-02   -0.1085983     0.2030489      -0.1276483     -0.1182996     -0.1461327     -0.1114226     -0.2655412     -0.1329723     0.2482481      8.116614E-02   0.2613695      2.824488E-02   -0.2626454     -0.1093881     -0.1078325     0.2637952      0.123698       0.2511038      -0.2219069     3.563399E-02   -0.19988       -0.241096      0.2392484      -0.1773427     -5.781732E-02  5.609607E-02   -0.278045      -9.86053E-03   7.700736E-02   1.216427E-02   0.2010581      -0.2857796     2.109712E-02   5.521417E-02   -0.2271982     -0.195407      -5.737785E-02  -0.188229      -0.1942717     -0.1603046     -0.2905698     -0.1110294     -0.2096347     0.1957732      0.216538       -1.773431E-02  7.654958E-02   -8.378246E-02  -3.163243E-02  -7.04062E-03   -4.001892E-02  -0.2165014     -0.197293      -0.1288278     -5.640736E-02  -0.2022004     8.563189E-02   0.1373608      -0.1458937     -0.2163182     0.22313        -0.0465743     -0.1902066     0.1430006      -0.1666402     0.1122929      -6.684469E-02  7.318034E-02   2.326426E-02   1.454817E-02   -0.1978057
-4.517714E-03  -0.1788354     0.237138       0.2444624      0.1641316      0.2684443      -5.578478E-02  0.2956237      -0.2129148     4.797313E-02   0.2297466      -7.102222E-02  -0.2873989     0.1212445      0.1914436      0.2308698      -9.976806E-02  0.1085574      -0.1696616     0.1423963      -0.2252583     -0.2182592     -5.410932E-03  5.184632E-02   -0.1374624     0.2297201      0.3006878      7.672933E-02   6.526337E-02   0.180829       -0.2172762     0.1765099      -0.1998016     0.2468246      0.2551927      0.0543912      -0.2813594     0.1541507      0.2753864      -0.289535      0.2878097      -7.460666E-02  -0.1555016     -0.1534495     6.765132E-03   0.1622947      -0.0314127     0.1119083      3.840809E-02   -0.1891067     0.2723095      -0.1435774     0.1624376      -0.207995      -0.117314      0.1218929      -7.600283E-02  -0.2281553     -0.1596651     -0.1026343     0.1215534      -0.268981      -7.825173E-02  -0.2370636     2.563901E-02   -0.2277083     0.2928784      0.308269       0.2893942      -0.1273032     0.3397608      -4.366305E-02  -0.1261161     -0.212078      0.263104       0.1533738      -0.1237883     -0.2242853     -0.3196537     0.1097089      -9.584983E-02  0.1463839      0.2517588      -3.006845E-03  2.019046E-02   -0.1232285     0.175132       0.3132265      0.1974108      4.767741E-02   7.444843E-03   -5.560447E-02  -0.1728385     -2.468485E-02  -0.1211914     0.2457202      -0.1105886     -0.1603876     6.391539E-02   0.2374101      0.2263548      -0.2660674     0.2764164      0.1947633      0.2197135      0.2091088      0.1869558      0.1279465      8.826371E-02   3.476475E-02   -5.346541E-02  -0.1627374     -0.1262015     0.4080697      0.3931334      0.1753342      -5.811905E-03  -2.149611E-02  -0.1122532     -8.114239E-02  0.278871       -0.1367735     0.1752009      0.3614616      -0.1635294     5.496001E-02   -0.2436761     0.1158566      -0.2420915     0.314458       0.320203       -0.290641      -0.2628619     -0.3952349     -0.177746      2.486651E-02   -0.1748151     0.3016163      -0.1383018     -0.039273      -0.2444439     -0.2948181     0.2692667      9.981705E-02   -0.3143023     0.185136       3.538809E-02   -0.3499514     0.1709022      -0.1636787     0.3005984      0.1199947      0.2796446      0.1549591      -0.1114426     -0.204334      0.2763051      -0.1463549     -3.828334E-02  -0.2535017     0.344155       0.2807809      2.169191E-02   5.547471E-02   -1.466064E-02  0.1011645      -3.590111E-02  0.3543404      0.2540984      5.683856E-02   -1.373478E-02  -6.298372E-02  4.099448E-02   0.2645529      0.3618892      4.241588E-02   -4.759407E-02  0.1580064      -0.328312      -8.246069E-02  -9.989335E-02  -0.2703783     -0.1962396     -0.1993841     0.0782396      0.1347497      0.2307107      0.1943888      -0.2149899     5.811276E-02   0.1986855      0.2107999      0.1926296      0.1501245      0.135945       -0.1914556     -8.072819E-02  0.2559952      -3.348998E-02  9.069721E-03   -0.2936779     -0.1175019     0.1648995      9.197484E-02   -6.248584E-02  0.2457597      -0.2556759     0.1129636      -7.797942E-02  -7.081132E-02  0.2843311      6.876497E-02   0.1898566      0.1702729      1.733262E-02   -0.1796713     0.2365165      -0.2102564     0.2925665      -6.644608E-02  0.2412694      -0.2164879     9.275653E-02   -0.1778903     9.702541E-02   -0.1571778     -0.277589      0.1308892      -8.722631E-02  0.3017094      0.1994349      0.1310833      -0.2437542     -5.058626E-02  -0.2495718     -0.1073526     0.1095964      -2.047264E-02  0.1169485      -3.022279E-02  0.1792216      -0.134415      0.2224121      -8.202599E-02  -0.1872497     3.043283E-02   0.2159432      -3.686864E-02  -0.3002619     -0.1664934     0.1247933      0.1714453      -3.077424E-02  -0.2389312     -0.1967407     -0.1528574     -1.553697E-02  -6.559666E-02  -4.857305E-02  9.197126E-02   0.2389084      5.328804E-02   0.1284072      0.1690083      -0.3447256     -0.3396413     -0.3802337     -1.102326E-02  -0.3133957     -0.1405836     -0.1497049     0.1654866      0.1135746      4.691795E-02   4.138935E-02   -3.251491E-02  -0.19499       0.227912       0.1981498      -0.143024      0.2938162      0.1815701      6.000134E-02   -0.1696912     -0.1275643     3.474532E-02   -0.1902249     -0.2859371     3.085421E-03   0.2220567      -9.645019E-03  0.1387483      -6.060488E-02  -2.071031E-02  0.1671051      0.2968871      1.775262E-02   9.846798E-02   -0.220658      0.2882443      0.1059389      -0.2599353     -0.1366466     0.2087191      -0.1137578     0.2273782      -0.1375256     -0.1278939     -0.2617847     2.755821E-03   0.1754296      -0.1013794     0.1709983      -0.0267983     -5.355083E-02  -0.246495      -0.1863064     0.2206946      0.0905942      0.2024934      0.255266       -0.1363537     0.1654317      -7.220985E-02  -9.724113E-02  0.1634358      0.2081332      -0.2515855     0.1267769      -0.1306589     -0.2437117
6.225927E-02   0.1177313      0.1737816      -0.1781579     -0.2617664     0.1538941      -0.1168157     -0.1965239     -7.548192E-02  -6.590692E-02  0.1947245      -4.621435E-02  0.2628098      0.1923139      0.1476687      -0.1938638     8.514664E-04   0.1507828      0.2777154      0.2698782      -0.2918326     -4.800257E-02  0.103119       8.719398E-02   0.2738903      -0.1811979     -0.2934986     -0.1088578     0.1904558      -0.1372894     0.1014751      0.1133549      0.1630146      -4.824061E-02  -0.1500687     -8.371189E-02  -0.2437996     0.1164174      -1.415328E-02  -0.2023986     -6.468155E-02  -1.942576E-02  0.2406164      0.2876926      -0.1001366     4.300733E-02   -0.2354351     -0.2898923     -7.568554E-02  -0.1666369     0.1455697      -0.1959314     -9.522735E-02  -4.223588E-02  -0.1150007     0.2659208      -0.2614529     0.2706739      -0.1850009     -0.2436        -0.2668682     6.601154E-03   -0.2691243     8.462591E-02   -0.269675      -0.1726483     0.33526        -4.762658E-02  -2.949294E-02  0.1653675      9.825358E-03   0.2609175      0.155332       -0.2533601     -3.704408E-02  -0.1598907     0.1725263      -0.1797161     -5.447799E-02  -0.1501769     -0.2038594     -4.837699E-02  -6.763175E-02  0.0963366      -0.2032013     0.1862586      -0.1992534     0.15942        0.1567077      4.414267E-02   0.0570602      0.171098       2.076178E-02   -8.467724E-02  -4.345149E-02  -0.1313283     -9.409962E-02  -0.1941742     0.1713889      -0.1298007     -0.1922102     -0.0258951     0.3078103      -0.1217562     0.138834       9.046619E-02   -0.2821359     0.2443706      0.2167411      6.990627E-02   -7.498722E-02  0.2496935      6.667482E-03   -0.2035245     0.0450948      5.603286E-02   0.2789088      0.2763566      0.1360035      0.2504396      0.2616811      -0.2292267     -0.1154284     0.1435654      0.1399378      0.2112252      -7.437316E-02  0.1027761      8.314805E-02   -4.181415E-02  0.2142461      0.2108165      2.954836E-02   -0.2542482     -1.334042E-02  9.998327E-02   0.2675154      -0.1982567     8.79835E-03    -0.2441862     -0.2736835     -0.1447195     0.1296163      2.436894E-02   -0.2096099     -0.1775377     -0.1297722     -0.1039406     -0.278836      0.1286797      -0.3155659     0.1345483      0.1371207      2.044704E-02   0.2448002      4.543365E-02   -0.1559794     -0.2541181     -0.3059083     -0.1668557     4.479133E-03   0.1421334      -7.043382E-03  -0.1675319     0.2167463      4.125334E-02   0.2422241      0.222816       0.1404875      -0.1077782     -0.1876682     -8.223355E-02  0.2284898      -3.765837E-03  0.1820282      -0.1386195     9.035247E-02   0.2640101      6.829206E-02   7.616951E-03   0.1080492      -0.1632137     -9.663244E-02  -6.042273E-02  -0.3028685     -5.150564E-02  0.1111559      0.097501       -0.1206736     9.231714E-03   -0.2870932     0.2345735      0.1115546      -0.2440383     0.1083503      0.0894922      -0.1951424     6.342874E-02   0.2979652      0.2807302      9.087812E-02   0.1689404      0.2082884      0.1508009      -9.095235E-02  0.1857491      0.2565394      0.3117234      8.602706E-02   -3.031318E-02  -0.1986468     -7.258622E-02  0.2565663      0.1452346      0.2274304      -7.599304E-02  -0.1399233     0.1604381      -0.1050485     0.1499994      0.2251691      -3.606217E-02  0.1041688      0.1482555      0.3214352      4.705101E-02   1.089491E-02   -0.2253345     9.82647E-03    -0.1270881     4.985223E-02   -1.311615E-02  0.1273222      0.1254781      -0.1293783     4.459259E-02   -5.052376E-03  -7.336568E-02  -2.56969E-03   -4.419801E-02  -3.933195E-02  0.218823       -0.2000944     0.1018296      -0.224915      -0.206385      0.2607726      0.0929051      0.1820996      5.623336E-02   0.2750414      0.2695112      0.1798393      -3.374599E-02  -9.511732E-02  -1.918691E-02  0.232725       8.322663E-02   -1.586349E-03  -0.2383486     -0.2471969     -0.1124508     -0.1901359     2.586056E-02   -0.2773375     5.475229E-03   -0.1482016     -1.361595E-02  7.321991E-02   1.163727E-02   0.2738765      0.1576678      -0.1205512     -0.2417721     -0.1212228     0.2432882      -0.2460029     -0.1531531     0.1847339      0.2087321      0.1527618      -7.062313E-02  -0.1335921     -9.137968E-02  -4.963225E-02  -0.2209326     -7.242958E-02  0.2887387      0.2464034      0.1131201      3.271173E-02   0.2633214      0.1539677      -2.898236E-02  0.2428294      -3.588061E-02  -0.1390454     0.1366466      -0.166805      6.689963E-02   3.002106E-02   0.0933958      6.391492E-02   4.994354E-02   -0.2473922     -0.275042      0.2088107      -0.2602649     -0.2885006     -3.489181E-02  -0.2858272     7.325358E-02   -0.1884854     -0.2791437     8.826869E-02   -0.2430159     -0.1163396     0.1164861      0.1002808      0.2757012      0.2402509      -0.1159185     -0.1597736     0.2193213      -0.224778      0.219248       8.295847E-02   -0.2028413     -0.1970916     -7.916807E-02  -0.0998413
-5.628409E-02  -0.1257882     0.1462783      1.077609E-02   -0.2461104     -0.1462024     -8.514664E-04  -0.2586535     -0.2071527     8.167776E-02   5.963524E-02   0.1258031      -8.825093E-02  -0.2635067     -0.1151964     -2.66332E-03   -0.1932279     3.796808E-02   -0.2616016     0.1770592      0.2439162      -0.1441725     -4.408399E-02  -5.002549E-02  -0.1109001     -0.270638      4.087531E-02   -0.2619994     3.142832E-02   6.123396E-02   0.2209715      -1.702017E-02  -0.1486404     0.2360759      0.1361888      0.1395791      0.0862461      -1.245032E-02  0.2144882      -0.2248875     0.0535161      0.2403413      -0.1886955     4.198373E-02   -0.2695323     3.617412E-03   0.1282235      4.488968E-02   0.1374547      -1.122843E-03  -0.2967075     9.512509E-02   -0.1751568     9.462069E-02   5.082543E-02   -1.220971E-02  -0.1087442     0.1146552      0.1801682      -0.2784469     -0.1760499     -0.1441542     0.2122556      0.2321151      7.102982E-02   -0.0272536     -9.593064E-02  -0.141509      8.764536E-02   -0.2273002     -0.1505032     0.0246761      0.2813479      7.122506E-03   1.810428E-02   0.2554317      -0.1907625     0.0833748      0.2446046      -7.853439E-02  -0.2246888     -0.1369362     0.2028493      -0.0240103     -0.234759      0.2174362      -4.090089E-02  -0.2321731     4.511845E-02   0.1599911      0.1305043      -0.1173965     0.2779495      -2.363879E-03  -0.1335676     -0.1240653     -0.2405374     3.619935E-02   -0.1171718     -0.1091939     1.694479E-02   -9.263102E-02  7.761235E-02   -0.2032923     0.2461673      6.373639E-02   0.137266       3.921865E-02   6.597584E-02   -0.225122      0.1698299      -0.1389117     -0.1118664     7.427853E-02   2.926579E-03   -0.2095989     -0.1954495     -0.2977464     0.238413       0.3215427      0.1589919      0.2431754      -0.2868223     0.2263364      -0.2133121     -0.2973756     0.1400827      -0.2079447     -4.591885E-02  -0.1209011     0.1839627      -7.593815E-02  0.2462708      -0.2000037     -2.734318E-02  0.125955       -0.02256       0.1679849      0.1113662      7.251703E-02   0.2487035      3.256958E-02   -0.2192895     0.1919863      0.2192495      -0.130966      -0.1248014     -9.427033E-02  -3.982063E-02  -0.2759196     2.756887E-02   -0.157867      0.272588       0.1327396      -8.079217E-02  -3.953451E-02  0.1628041      3.17985E-03    -0.0830341     -2.286528E-02  0.1139962      0.1025982      0.1050657      -2.534488E-02  -3.270698E-02  0.1996862      8.819406E-02   0.2067874      0.1118322      -0.1880256     -6.158077E-02  -6.366405E-02  -3.783467E-02  3.721528E-02   6.498054E-02   0.2924793      -0.1571652     0.2677773      -0.1920975     -4.089688E-02  0.1497892      0.2513969      0.2262823      -0.1234268     -0.1383458     -0.2290369     -0.1839826     -5.426684E-02  -0.2253296     -0.021949      -8.423455E-02  0.1737085      8.091765E-03   -4.850816E-02  0.1191161      -3.565458E-02  -0.2930218     0.2898248      -0.1402753     -0.1209241     0.2368204      5.217544E-02   -6.270726E-02  0.1351697      -0.1875191     0.2832103      0.2156833      0.2563226      -0.3306068     -0.2483085     -0.0173915     0.2367934      0.0928523      0.2545001      -0.1418693     0.1184967      -0.257206      6.331579E-02   -0.2359841     -0.1099917     0.181394       0.196235       2.148107E-02   0.1442284      3.964654E-02   0.1350728      -4.498949E-02  0.2378367      0.1550563      -0.1544799     -0.1762877     0.1477674      -3.201807E-02  -0.1097381     -2.144463E-02  -1.118314E-03  -4.572525E-02  -3.154634E-02  -0.1294797     -0.2416832     -0.2529865     0.2461553      0.0849504      5.532871E-03   0.2959459      0.256764       -0.2516229     -4.454688E-02  0.2130618      -0.1285336     -1.294364E-02  -0.1788882     -1.040041E-02  -0.1633504     -0.1198598     -0.3026522     -0.2848384     9.866195E-02   0.1627565      -3.722352E-03  0.1334793      -0.2744532     -0.173659      -4.346745E-02  0.1679807      -0.2140527     -0.2016185     0.2372902      8.756572E-02   0.1032861      -3.669954E-02  -0.1695151     -0.1099124     0.223845       0.2056278      -0.1179918     0.154643       -0.1594165     0.0573412      -8.878298E-03  -0.2127128     -1.559205E-02  -1.658665E-02  0.2605319      0.2320109      1.551866E-02   0.2748039      -0.1323069     -9.155553E-06  -0.2540629     0.1989236      -0.2388034     -5.761523E-02  -0.1170868     0.2903382      -0.1368664     0.1018189      -0.1263192     0.2839778      2.388684E-02   9.484237E-02   5.521714E-02   -4.580523E-02  -9.033784E-02  0.2314249      0.2952208      -5.287332E-02  0.1374157      -0.1009766     -0.2900937     0.2962829      3.506577E-03   0.1862514      -5.795465E-03  -4.565874E-02  -0.2182959     -0.2546434     -3.545946E-02  0.1705771      0.1720237      0.1016724      -0.1375439     -0.1134465     0.1947111      -0.271984      6.241341E-02   -0.1808863     -7.713553E-02  -0.2967772     0.1274911      -0.2009552
0.1653714      -3.798639E-02  6.913358E-02   0.0929014      -6.860256E-02  -0.103832      -0.25197       -0.167922      -0.1447825     2.903802E-02   0.1029965      5.378342E-02   2.981914E-02   -0.2491307     -0.3101725     0.2593893      0.089935       0.0368511      -8.326976E-02  5.518052E-02   -0.1506896     0.2666555      3.904843E-02   -0.1994593     -0.3053762     -0.2953519     -5.572556E-02  -0.2878745     -0.3627634     -0.1527856     0.2725001      -0.2932432     -0.1885037     -0.1059572     1.612293E-02   -8.143754E-02  5.783815E-02   0.1616428      -0.2043285     -1.388328E-02  0.1732629      3.212485E-03   0.2680011      -0.2610019     0.2203947      -0.1411306     -6.909696E-02  -0.2183325     0.1905924      0.1363916      -0.2129078     2.237104E-02   -0.2394225     0.2537946      0.0312364      -0.2066408     0.1237078      -0.0841454     -0.2553813     0.152092       -0.1576655     0.161861       8.997223E-02   1.427151E-02   -0.160842      -0.204289      3.356654E-02   -8.043697E-02  0.2077779      8.720377E-02   0.2233942      0.1469201      -0.1075485     0.1498569      -0.2449501     -0.1306965     0.2069873      -4.469647E-02  -1.346573E-02  0.1899912      -0.3173342     0.3361854      0.1308621      -0.1636401     0.0367349      6.036189E-02   -9.265614E-02  0.2224088      4.977122E-02   -1.472663E-02  -0.1109949     0.3038698      0.2722124      -0.2854004     -6.786758E-02  -2.258912E-02  2.474262E-02   0.1116667      0.1778246      2.733571E-02   0.1186107      -0.2327739     -6.416447E-02  -0.2011534     0.2085691      -0.189818      6.194623E-02   0.2803883      0.2902584      0.247524       -0.2444063     -0.1819962     0.2885369      0.2555362      0.2704859      0.1702762      -0.1942211     -6.575593E-02  -0.1801733     -4.309111E-02  -0.2524902     -0.1911289     -0.1304937     0.1652874      3.173677E-02   -6.680792E-04  -1.173755E-02  -0.1479889     0.1258422      -0.302009      -0.1463895     0.2564837      0.2164601      9.583489E-02   7.865538E-02   -5.792331E-02  0.2991824      0.2993858      6.734233E-02   0.1671327      9.873233E-03   -0.2479173     0.3013623      0.1806328      0.2399759      -9.440032E-02  0.3109581      -1.130808E-02  0.1755442      -9.623829E-02  6.507152E-02   0.2492018      0.2074193      -0.2382498     -0.1863059     -6.973931E-02  0.2072705      -3.295394E-02  -2.254648E-02  4.382547E-02   0.2780744      -0.2110551     0.2863686      7.139402E-02   -7.318978E-02  -0.1426938     0.1331031      9.539525E-02   -7.016677E-02  0.2336501      0.2832171      -0.1334902     0.3373818      -0.1877787     1.138074E-02   0.3785509      -4.771776E-02  6.524219E-02   1.483662E-02   2.090404E-03   -2.882257E-02  0.2053491      0.2528217      -0.1305273     0.1646472      -0.3163565     0.165026       -0.225869      0.1155612      0.2896621      0.1339101      0.2099185      -7.510455E-02  0.1678674      6.890886E-02   -3.359566E-02  -0.1012162     -0.2508892     1.143923E-02   2.995947E-02   -0.3154671     0.1017398      3.195307E-02   -0.1942655     -0.2340142     -0.1270814     0.2486883      0.0446898      -0.2585586     0.2654058      -9.305409E-02  -0.2026306     -0.2944389     -7.247702E-02  -0.1444353     -6.500958E-02  -0.2896652     -0.0842641     0.1061326      -1.368308E-02  0.1329496      -0.1910831     -0.2314777     0.2727935      -6.103941E-04  0.201597       7.062676E-03   0.1811816      -0.3224835     5.540971E-02   -0.2466115     0.302458       0.0732502      -6.106032E-02  0.2006498      -0.1604114     -0.2406756     0.1055336      -6.338771E-02  5.877988E-02   0.0419707      -0.1345129     0.1118349      0.1321565      -0.1309781     -7.001873E-02  0.1471218      -0.1620668     0.1643119      -2.539938E-02  -0.1425487     -0.1509727     -0.2949981     -0.2059635     -2.588285E-02  -0.2838206     0.1792566      -0.3113967     -0.2041024     -5.536174E-02  -0.3375432     -0.1005911     0.2344726      0.2374637      -0.3736413     -0.2168562     -0.2983345     3.352386E-02   0.1694775      -0.2266676     0.113831       0.1808496      -0.1423597     -0.2581744     1.033409E-02   0.2265538      7.014033E-02   0.1131095      -0.2600253     0.2253292      -0.1553591     0.2607102      0.2376789      -1.573286E-04  0.1759972      0.2671499      0.2986633      0.0952086      -0.2558153     -4.272593E-02  -0.2179251     -0.2109669     0.1931226      0.1503091      -2.631939E-02  -0.234904      -0.1610737     -0.2307291     -1.463973E-02  -2.326426E-02  0.1556536      -2.013306E-02  -0.144026      9.567553E-03   -0.2518418     9.988708E-03   0.2316446      -0.1763268     4.637288E-02   5.845821E-02   0.1940886      -0.2921445     -0.1244148     9.288309E-02   -4.650106E-02  -0.2388226     0.1432936      -0.2042512     -0.2086459     0.120954       -1.370586E-02  -0.1709067     0.1480361      -0.1440626     0.2223609      0.0859798      0.2491134      -5.631581E-02  0.2497177      -0.102002      0.1642049
0.1785737      -0.1605426     -8.332469E-02  -3.688772E-02  0.1103336      3.583196E-02   0.2248695      -0.1194525     0.267749       -7.976184E-03  0.190404       -4.542942E-02  -5.354556E-03  -0.2924044     -0.2344306     0.2197522      -0.2352336     -0.1473037     -0.1060671     -8.352611E-02  -0.1408721     0.2688345      3.505661E-02   0.2249208      -7.314499E-02  -0.1758242     -0.1885903     7.752865E-02   0.2430474      0.2120882      0.1899967      -8.198798E-02  0.2887204      -3.752861E-02  -0.1900784     0.333713       0.1854734      -0.3099684     0.2352027      -0.2591846     0.2093499      -8.615085E-02  -1.601003E-02  0.1508533      0.2810323      0.2594671      9.641713E-02   5.984985E-02   -0.2118444     0.1730733      6.864096E-02   -0.0313366     0.3072469      -0.2281723     0.259477       -0.2222213     1.086526E-02   0.1967105      -0.2052945     -0.1607178     0.125524       -0.2627552     0.2970755      0.1872854      -0.1263824     0.2064941      0.1426609      -5.339503E-02  0.2530158      -8.597876E-02  0.1787839      0.1295938      -0.2226879     8.410192E-02   -6.477988E-02  0.1113057      0.2976531      0.1646739      -0.2370142     0.1067853      -0.2519278     0.1138423      0.1959369      0.1058391      -0.1813323     0.2277099      0.1459885      -0.2291748     -2.379468E-02  -0.1295642     -0.1362756     -0.2067069     -0.1107354     0.2268106      -5.504109E-02  -0.1709936     9.124302E-02   0.2320592      0.3033827      0.3701539      -4.170123E-02  -8.012072E-02  0.1139377      -0.1900721     -1.188144E-02  -0.1342924     0.2064185      0.1265225      0.1635976      2.052694E-02   7.839544E-02   0.1239841      -0.252442      0.0412936      0.2692983      0.3105956      0.1573952      -0.1305173     5.748303E-02   -6.481577E-02  -6.847107E-02  -0.1592425     -0.284322      0.18053        3.470932E-02   -9.478691E-02  0.300064       -9.245878E-02  -3.781423E-02  -0.2649525     -0.238198      0.1350827      0.0662973      0.2962255      -0.1113604     1.181948E-02   6.17853E-04    0.1910264      -0.1437673     0.143106       -0.2671429     -7.369597E-02  0.199466       8.707325E-02   0.1520738      1.019907E-02   0.2315479      0.0904659      -0.1556079     -6.926125E-02  0.1513922      -0.282216      -0.3442498     -0.2987915     -0.1252793     -9.349196E-02  -1.903374E-02  0.1693594      4.455124E-02   -5.777234E-02  -0.1390354     -0.1337992     -0.1460545     0.1391502      5.103745E-02   4.328871E-02   -0.2563946     8.114147E-02   7.197907E-02   -6.679996E-02  -0.1588821     -5.045026E-02  0.1162796      -0.2968908     -0.1379612     -0.2695554     0.2133192      0.1811507      0.1901325      7.543344E-02   -0.0610899     0.2027155      2.000816E-02   8.632591E-02   -0.2388281     0.2799203      0.2949221      -0.167044      0.1870298      -0.2845358     0.156644       -8.975191E-02  2.908338E-03   -0.2235647     -5.268766E-02  -9.282049E-02  -1.586451E-02  0.1282569      -8.325499E-02  -0.2416604     -0.1963944     -0.1749299     0.1780771      0.1968068      -8.104739E-03  -0.127796      0.1687219      -0.2682189     0.326568       -9.473625E-02  -0.2569642     -0.1264087     0.137346       -0.2271161     1.014111E-02   -0.2226352     0.2725565      7.546443E-02   -0.1516076     0.1844718      -0.1985036     0.2177894      3.102374E-03   4.103426E-02   9.271127E-03   8.505064E-02   0.1044344      8.133597E-02   -0.0704752     -8.611774E-02  1.652593E-02   2.786407E-02   -6.452052E-02  0.2263681      5.618912E-02   -4.359081E-02  0.3202952      0.2492616      -0.2735181     -5.689117E-02  0.1087381      9.561925E-02   -0.271812      0.1113166      0.2042539      4.583207E-02   -0.3127393     -0.1041011     -0.1055223     -0.2468203     -0.1492068     -0.2054578     -0.3224217     5.024274E-03   -6.855645E-02  0.2386141      -2.650533E-02  -0.2902634     -0.1589057     0.2745103      -0.1518386     0.1265169      -8.449849E-02  -0.1061743     9.099681E-02   -0.2845801     0.1858339      -4.114547E-02  2.994084E-02   8.872949E-02   -0.0244053     -0.227488      -0.1162847     -0.1895571     6.447165E-02   9.858083E-03   -0.2329851     -0.1350098     -0.2338838     0.0120297      -3.113053E-02  0.1124077      3.403893E-02   -0.2957268     0.2716544      2.168951E-02   -0.1713828     0.2000214      2.989288E-02   -0.3101292     0.2102293      3.999091E-02   0.1635726      -0.2259727     0.1245396      0.0582751      0.234904       -0.1219245     0.1480178      3.827937E-02   0.2078402      0.248967       -0.2128575     0.2844722      -0.1220527     -0.1546281     -0.1144719     -1.588489E-02  7.814264E-02   -0.2718742     -0.0490463     -0.1632344     0.159682       0.137727       4.796594E-02   8.460647E-02   -9.288309E-02  0.1307321      0.1446486      -9.650869E-02  7.156896E-02   -0.1386059     0.224485       0.1983184      0.1911039      -9.844966E-02  -1.753289E-02  0.1461318      -0.1330577     9.328593E-02   0.2237159
0.1164712      4.672079E-02   0.2139927      0.1125858      0.1845668      -0.2897519     -0.1174383     0.1721153      -0.1672683     0.1988616      -0.2200017     0.1188817      0.1146584      0.2879775      -0.1729129     0.2107537      -0.0139256     8.610798E-02   -5.452132E-02  6.164434E-02   0.1331041      -0.1465529     -0.2992859     0.152169       -0.2862543     0.2234958      0.1209746      -0.1969141     0.1926947      -0.2116399     -0.2136794     0.2948363      -0.2156957     4.824976E-03   -0.1213935     0.1092069      -0.1335834     0.2873502      9.498868E-02   -0.1044803     0.2532154      -0.2524065     0.2026012      -0.224065      0.1225769      -0.3024679     -0.1839259     0.1242866      9.488588E-02   -0.2645621     0.2345777      0.114254       0.200807       -0.1954709     0.1548394      0.138685       -0.2500218     -4.652827E-02  -5.593827E-03  -0.1105396     -9.974874E-02  0.2665273      -0.1878563     0.2204072      -0.2795821     -0.1161031     6.091484E-02   6.548781E-02   -0.3342081     -0.1810251     0.2197704      -0.1897371     -0.2768892     -0.26803       -6.944274E-02  0.0527957      0.2912569      0.2272406      0.2779152      0.2374709      -0.2610691     9.675766E-02   1.122165E-02   -4.663961E-02  0.2749729      -0.1296231     8.669265E-02   -0.181997      -6.922944E-03  3.045554E-02   0.1481846      0.2436077      0.2157983      -4.473886E-02  -0.3142829     -0.2844523     0.2316438      0.2375412      0.1869151      -2.142864E-02  -0.2089291     0.2558131      0.1304094      -2.145289E-02  0.1062916      0.2285593      0.1880132      0.0540896      0.1560726      0.240616       0.2298301      -0.114183      0.1251723      -0.1059909     0.1338667      -0.1352237     0.2476485      0.1071944      -0.263931      -0.3118844     -0.1957067     0.1118624      5.167373E-02   -4.168641E-02  0.1709865      5.529439E-02   -0.1741919     4.134298E-02   -0.2558168     0.1761902      0.1626332      -0.2464278     -0.273829      -0.2722623     -0.2027033     -5.252314E-02  1.173912E-02   -0.1033963     -0.1707715     9.414675E-02   0.1122497      0.1341285      0.2117544      0.1990425      -0.3253527     -0.2367849     0.210832       -3.203917E-02  0.057424       2.752995E-02   0.2183511      -0.2891017     0.1691321      -0.3263012     -0.2856944     -0.1187162     0.19599        2.332296E-02   0.2279051      1.076151E-02   -0.1104834     -0.2875056     -2.715109E-02  -0.1860882     -7.730158E-02  0.2646108      0.2058723      0.2098211      -0.202592      0.2103359      0.1531387      -0.2241025     3.916226E-02   0.1958864      -0.2309663     -0.2014938     -3.751882E-02  -0.1898198     0.0107542      -0.1144972     -5.595972E-02  -0.1769558     -4.698835E-02  0.2166534      0.2031316      -0.1424205     -8.708581E-02  0.2695099      -0.2914126     5.281277E-02   0.2089411      0.2069491      0.1178453      1.485569E-02   0.2505676      -2.810153E-02  0.2715524      0.2609075      0.2545156      -0.3009934     -0.2138914     6.383019E-02   5.386116E-02   -8.952612E-02  1.222354E-02   -0.1148251     0.2269963      -0.1973749     -0.1546616     -0.223819      -0.1795761     0.2272342      0.1956298      -0.2033269     0.1034236      -5.639401E-02  4.924425E-02   0.2083653      1.701783E-02   -8.271683E-02  -0.0116504     -0.2619443     -0.27586       -1.091065E-02  5.076381E-02   9.790771E-02   -0.2160653     -5.484822E-03  -0.263274      0.1311463      -0.205967      -3.213074E-02  -3.989714E-02  -0.1342565     9.399433E-02   -0.1181928     0.190928       0.1889274      -0.1107558     -0.2514416     -0.1122541     -0.1576257     -4.420684E-02  -0.1888944     0.1118275      -0.2221489     -0.2321178     0.2844995      -0.2854035     0.181633       0.2039136      0.2294801      0.1807146      2.943602E-02   -5.596353E-02  -0.2662988     -3.100986E-02  7.237722E-02   -0.1568029     0.1731176      -0.214555      0.2708624      0.134651       -0.1827431     0.2544743      -0.1150078     -4.864699E-02  -0.1148607     -8.068674E-02  0.2052447      2.699036E-02   0.1213385      -6.186407E-02  -2.807612E-02  0.1972278      -0.1639068     -0.2164048     0.2101029      0.1272925      -0.1797558     -0.2852546     -0.2658757     4.069629E-03   -4.041631E-03  0.2192297      0.1529801      -0.2603565     -1.817377E-02  -8.191474E-02  -0.1845261     -0.1396272     0.122661       -0.2912614     4.459533E-02   -4.141194E-02  9.297464E-02   -3.425093E-02  0.1176946      0.2761223      -0.1810694     0.2460555      -8.084353E-03  -0.2791437     -0.1993988     -0.2702262     -6.893216E-02  0.2836848      0.1737083      5.062106E-02   -0.1192877     0.2820002      -0.1581256     -0.2269936     0.1896939      0.1365184      -0.2395001     0.1225288      7.548754E-02   0.2058992      -0.2614551     -0.1390637     0.1551408      -7.416914E-02  2.784204E-02   0.1001526      5.979492E-02   -3.946044E-03  6.797998E-02   -5.162816E-02  -0.1477249     5.930052E-02
-0.2488454     1.954711E-02   -0.1629048     -0.2457442     -0.2075472     8.663134E-03   0.1689108      0.0897702      -0.1845704     -0.2045487     0.095419       0.2568534      -4.779928E-02  -0.1294352     -4.771215E-02  -1.166103E-02  2.817164E-02   0.2876766      -0.2174169     9.070407E-02   0.1391319      -0.0589343     0.2728263      -0.1261771     0.2494024      -0.2117562     -0.2741614     -3.687304E-02  -0.3262061     0.1464648      -0.2427271     0.1577593      1.555528E-02   0.1106449      -0.0304239     -0.2290129     -5.715783E-02  -0.1714202     -0.3284959     0.2662485      0.1691698      0.0886943      -0.2862841     0.1153732      -9.897535E-02  -5.139577E-02  -0.102002      4.049501E-02   -0.1456763     -0.1397801     -0.2665161     -2.071475E-02  -6.745786E-02  0.2183116      -0.1739942     8.173056E-02   -3.782887E-02  -0.1497612     -0.4133081     -0.221188      8.696352E-02   0.2054598      -0.2245606     -0.0470729     1.405979E-02   0.1828533      -0.1962674     -0.1915666     -0.3146629     0.1116305      -0.3162848     1.997844E-02   -0.2115677     -1.458197E-02  2.675277E-02   6.702483E-02   8.584104E-02   0.2346048      0.1185168      0.2573828      -0.3775516     9.754799E-02   0.1427862      -0.2033197     0.2483778      0.1636951      -0.2676649     0.1346371      8.596361E-02   -0.1859193     9.239096E-03   -1.012075E-02  -0.3316095     0.2155483      -0.1251714     4.855584E-02   -0.2488435     6.028261E-02   0.2929402      0.1004164      -0.1565844     0.1137333      1.913995E-02   -0.2525787     -7.105038E-02  -2.995681E-02  -0.2790771     3.578769E-02   0.1604305      0.1173361      0.1383007      6.626116E-02   1.602772E-02   -2.422145E-02  0.1619889      -1.304995E-02  -0.2044671     0.164524       -0.2451658     -0.1659013     -0.1544859     7.579239E-02   0.221798       -0.2990491     -0.2882922     4.635137E-02   -0.1320187     -0.2755907     0.2318909      -0.2627779     -0.1979298     -0.3687325     -0.3119593     -0.1895794     -0.117508      -5.877364E-02  -5.086724E-02  -0.138986      0.1031801      3.912073E-02   -0.1994999     -0.295087      -0.105913      0.2009135      -0.195897      8.652263E-02   -0.2810719     -0.225909      0.1669473      -0.1445294     0.2998409      0.1458263      0.2219205      -0.1034449     0.1416755      0.1638212      -6.149499E-02  0.1287227      0.1586948      -0.2117597     0.2059231      0.1197843      -0.1544037     -0.1849607     0.2705358      2.398736E-02   0.1575879      -0.0577233     -1.105158E-02  7.814706E-02   -7.580487E-02  -0.3314694     0.213812       2.665358E-02   -0.1230965     -0.2819994     -0.3842588     -0.3031022     0.0824035      1.827804E-02   -0.2771533     -7.138987E-03  1.601084E-03   -0.2072485     0.105234       0.2033457      -1.438365E-02  -4.154123E-02  0.3272437      2.046693E-02   -0.3363331     9.515379E-02   -0.1659513     -2.228881E-02  -0.1220891     0.1002839      -0.1463402     0.0113699      9.994795E-03   6.211229E-02   -5.574518E-02  0.2752023      -0.1391765     -0.2113993     0.1696083      -5.325202E-02  6.633152E-02   -0.1442599     0.2186997      0.1162445      -0.1584427     3.871548E-02   -0.0903159     -0.1553499     -0.2048702     -0.2146419     -0.1864904     2.670002E-02   -1.073221E-02  0.3030457      -0.1314045     0.2475711      0.2577627      0.1721407      -0.138718      -0.2016172     1.530038E-02   9.960441E-02   3.432792E-02   0.27368        -0.3091769     -0.3771727     -4.808997E-02  0.2706184      -0.0363395     7.054012E-02   9.720254E-03   7.948869E-02   3.219176E-02   0.2140151      -0.2627773     0.2607381      -0.1533446     -0.1304417     -1.108433E-02  6.670431E-03   0.1841883      -0.1228554     1.181171E-02   -4.491606E-03  7.150694E-02   4.905765E-02   -0.1563404     -0.1189489     -6.424332E-02  -0.1009068     -6.492203E-02  0.1223195      0.3205153      -4.283841E-02  -0.2493536     0.0378817      -4.740811E-03  -9.120981E-02  -0.1093217     0.217311       -0.1883143     0.1154331      0.1597296      -0.1849572     0.2615901      4.712363E-02   -7.964416E-02  -0.1890483     -0.2566504     -7.325594E-02  7.830508E-02   0.1362296      0.2746583      -0.1181556     5.376821E-02   -0.2277157     2.667519E-02   -2.220312E-02  -7.898496E-02  -0.2950926     0.2869991      -0.1271615     -0.1827174     0.3085822      3.443881E-02   -1.816897E-02  -3.931832E-02  -0.129607      -0.15039       0.2120518      0.2947447      -5.776238E-02  9.403668E-02   -0.0953734     0.1515885      -0.2258034     -0.2724418     -0.2639821     0.1067812      0.2056063      -0.1365368     -0.0935606     -3.758354E-02  0.1155705      -0.2734123     -0.2019257     0.0703055      -0.2529405     0.1117802      0.1991974      0.1162298      -1.471297E-02  5.466781E-02   -0.2271401     -0.1306223     0.2404706      -0.2104221     -0.0352031     0.1159002      0.2787775      -3.679617E-02  -0.1568987     -0.1049501     0.244847       -2.694479E-02
0.1324406      7.720878E-02   0.2181494      -0.2522629     -0.2142857     -0.3449195     0.2597339      -0.249791      -0.2599789     -0.2931416     -0.2400311     -0.1218547     -1.733751E-02  -0.2164187     -9.583223E-02  -3.455138E-02  -0.2464034     -0.1563311     0.1726646      -4.516434E-02  -6.492859E-02  -0.1911222     -0.2413129     -0.1532077     -2.178712E-02  -6.045784E-02  -0.3417328     -3.219806E-02  -0.3355624     5.537849E-02   0.2078343      0.2135899      0.1686544      6.700949E-02   0.163564       -0.2200769     0.1012124      -0.1588976     0.140939       0.2419834      9.601594E-03   7.192935E-03   -0.3158196     -4.139425E-02  7.889013E-02   -9.270681E-02  0.160744       0.2442061      0.171526       -0.2690217     -7.991176E-02  -0.1828712     0.1571799      -0.1636076     1.592273E-02   0.1261561      -0.1540424     -0.1388323     0.2058857      -0.3260503     0.1054927      2.914213E-02   0.1746938      -0.1882779     0.2004567      -0.1436535     -0.1397281     -4.242996E-02  -5.436109E-02  -7.235402E-02  -0.2729256     -0.1219246     -5.112072E-02  3.436855E-02   -0.1496888     -0.1148496     -0.2491114     0.2074182      6.232181E-02   0.1624105      0.1154783      0.2605821      3.641896E-02   -0.3126168     -1.158002E-02  0.153743       0.1878925      -2.974529E-02  -0.1564227     -0.3325568     -0.2242344     -0.2203298     -0.1009556     -0.1761578     -0.1653407     3.047431E-02   0.1031929      9.036899E-02   -0.2899967     -0.2872349     0.1286388      8.842207E-02   -5.897937E-04  0.211948       0.2432443      -0.1240662     8.117339E-02   -0.1485562     2.704403E-02   -0.1836296     -0.136276      8.656266E-02   0.1865106      -0.2846872     -0.4024804     -0.4379159     4.795632E-02   -0.2380272     0.1334427      -0.1215327     0.2398077      9.911291E-02   0.1527377      -0.4269004     -0.4082511     8.019831E-03   0.1109542      -3.300792E-02  -0.2708613     -0.2703801     -0.2515284     -0.3081607     -8.151562E-02  -0.3591204     4.136012E-02   -0.1436133     0.22611        0.155373       -6.660367E-02  0.2264394      -0.1822366     -0.1810315     -0.3260286     2.755994E-03   -2.597302E-02  -6.174236E-02  -0.3348764     4.771365E-02   -9.437902E-02  -0.3954932     9.760658E-02   0.2051604      -0.430653      -4.039417E-02  0.1286403      1.260874E-02   -4.108827E-02  -0.425614      -0.1368624     4.841335E-02   -0.334166      -0.244371      -0.3821765     -0.4089006     -4.260119E-02  -0.1077503     -0.239563      0.1777657      8.263293E-02   -7.000761E-02  0.2868042      -0.3186494     5.225921E-02   -0.1907192     -0.2915251     -0.2347005     -3.782725E-02  -0.1387837     -6.267473E-02  -0.2181317     -9.859951E-02  -0.2583954     -7.887701E-02  5.273451E-02   -0.1046126     -0.2152317     -0.2521966     3.945361E-02   -0.1557817     -3.327556E-02  -0.1746863     4.328105E-02   -0.4050939     0.1462792      -0.2537663     -1.715989E-02  -0.3412199     -8.644573E-02  -7.177217E-02  0.1970168      -0.1271673     -0.260622      0.2588903      -0.2886947     4.540401E-03   -0.2247838     -9.877598E-03  -0.0205928     -4.478212E-02  0.3177426      -0.2598607     4.951904E-02   6.989398E-02   0.1052296      -0.1868677     -0.257374      0.0450424      2.723875E-02   0.1778666      -0.064619      -0.3194781     -4.249673E-02  0.2685873      0.2303705      0.3232008      -4.027116E-02  0.2144456      -0.3246272     -0.1883982     9.803241E-02   -7.424667E-02  -0.4919608     0.1142952      0.1381618      9.605344E-03   -8.146542E-02  1.260619E-02   3.669556E-02   -0.2785638     8.426005E-02   0.2723705      -0.3178325     0.0135781      -6.823052E-02  -7.928909E-02  -0.2088917     -5.207852E-02  -0.2765197     3.992566E-02   0.0233668      8.724805E-05   0.2543185      -0.2555391     6.360141E-02   0.2771678      0.1954828      0.2173437      -0.2997888     0.2065495      0.1170264      5.828391E-02   0.1558678      -1.804265E-02  0.1679005      -0.1673137     0.0899798      0.2857286      0.1961814      -0.3238858     -0.3040975     0.202139       0.2215919      6.784265E-03   -0.2622268     -0.1673713     1.523472E-02   -0.2755807     0.2680605      -0.1166919     -0.140782      -0.1844786     0.1056042      -0.1377007     9.700788E-02   -6.243172E-02  -8.001038E-02  -4.618977E-02  1.518906E-02   -7.083651E-02  0.2498992      -0.1552534     -6.774452E-02  -0.1381875     -0.2676984     0.2780275      0.1881375      0.2096896      0.2139927      0.182168       0.0938902      6.125981E-02   -9.156469E-02  1.529893E-02   0.2591479      -8.956878E-02  0.1658345      0.1405286      -0.2387311     -0.2581958     0.1009034      0.2516038      -0.1261727     -0.1356945     0.2167943      -0.1068728     0.1695883      -0.166567      0.1445387      0.1233528      -0.1113041     -0.1222358     -3.033235E-02  0.1154241      -0.2089755     -2.643208E-02  -8.524735E-02  0.1912137      1.101413E-02   -0.188815      4.651937E-02   0.2811945
0.1707165      -0.203885      -0.1623371     -0.2545335     -0.270922      0.1970457      5.305643E-02   -0.1423414     -5.685587E-02  -0.2054456     -1.237204E-02  -0.1475344     9.076543E-02   0.1091013      0.1359193      -0.1418981     0.213242       0.1951872      -3.172399E-02  -0.2266457     -0.1617604     -5.206763E-02  6.616718E-02   -0.1187847     0.2932747      0.1531125      -8.850782E-02  -0.1903383     0.0917566      0.2215229      7.468606E-02   0.1381848      -0.1338084     -0.2405988     -0.1928068     0.1193887      0.1334         -0.1055788     0.2542417      5.719147E-02   0.1356255      -6.776619E-03  0.1251797      0.3386925      0.312549       -0.2890105     -0.1469558     -0.1668233     5.921278E-02   6.974142E-02   -0.2482467     -0.2021527     0.2440492      -0.19468       0.2599231      0.068277       0.2537684      -0.1655104     1.921072E-03   3.747134E-02   -0.1812121     0.074279       0.1939635      -0.1546971     -0.0739376     8.211444E-02   0.1027226      0.2827669      -0.2502935     9.509133E-02   0.2187672      0.2289561      0.2417635      0.1472521      -2.714282E-04  7.720421E-02   0.2397479      -0.2560218     -1.687044E-02  0.1143779      -0.0486467     -0.3325209     -0.0313033     -0.2263237     6.502789E-02   5.152263E-02   1.448051E-02   -4.128392E-02  0.3374035      0.2900604      0.0680972      0.1837023      0.1789836      0.2100407      -0.1964447     0.0961995      0.1115587      -9.010515E-02  0.1058605      0.231491       0.1700749      -5.197652E-02  0.2126521      0.2068196      0.3565499      -0.2724443     -0.1677524     -0.2724079     0.1924814      7.741749E-02   0.1965765      1.310136E-02   0.1040193      0.1882327      -8.553707E-02  6.596678E-02   -0.2045945     -2.073717E-02  -0.3269398     -0.1553738     -0.1330995     -0.3184503     0.2363365      -0.0719899     7.890491E-02   3.619119E-02   -0.3053899     1.795184E-02   0.2093684      -0.1981813     0.2203112      -0.2622393     0.2280226      9.103107E-02   0.1667832      -0.2491279     -4.529084E-02  -0.2160179     3.112362E-02   -0.1143569     5.358845E-02   -0.0923657     -0.1278333     -3.423097E-02  -0.3117442     -0.2033548     2.901034E-02   0.3648835      0.2988208      -0.1982501     0.1326862      -2.541616E-02  -0.224801      -0.1705305     0.0492903      0.1805876      -0.1379827     -0.24048       -3.890484E-02  -0.2329567     -0.1279045     -0.2175949     -7.038361E-02  0.2570693      0.209361       0.1423903      -0.1638065     0.3062042      -0.2467681     -7.762338E-02  0.2405247      7.556243E-02   -9.085572E-02  -2.477894E-03  0.2407317      0.2449376      8.346536E-02   0.2284495      0.2289661      -9.136514E-02  -0.1620508     -0.1074665     -0.3126706     0.1217425      -0.148299      -1.242526E-04  -0.2641352     0.2234427      3.384472E-02   6.534627E-02   0.1540161      0.167646       -3.851385E-02  4.810355E-02   0.2743824      -2.809328E-02  2.880802E-03   -0.3030239     4.084042E-02   0.3023191      -0.1618154     -7.378845E-02  0.1039021      -0.1828016     0.2220408      -0.139908      -0.2516575     -0.1047319     -0.197843      -0.0329961     0.2781402      -0.0893591     4.815926E-02   -0.2146729     -8.478139E-03  0.2557488      0.1650851      -0.2984028     -0.2609858     3.715092E-02   0.2215163      0.1543854      0.1890794      -0.2737323     -0.2548527     -0.2215172     -0.1845703     -0.2942765     -0.1810116     8.122947E-02   0.2777185      0.2324368      -0.0685487     0.2650869      -0.1815277     4.333817E-02   0.2232087      -0.1352762     0.2010671      0.156724       -6.827787E-03  0.1907084      0.0983429      2.071571E-02   -0.2934059     0.112893       -1.240637E-02  -8.266626E-02  -5.619541E-02  -0.149018      -4.951876E-02  0.2966407      0.2291492      -3.268198E-02  -0.2306103     -9.795161E-03  0.2138829      8.380019E-02   -0.1967929     -4.917198E-02  0.1113159      -0.1630295     -8.792031E-03  -0.1496337     -2.218886E-02  -0.2066238     -0.2883113     0.2432697      -0.2548673     -4.011601E-02  0.2918845      -6.254158E-02  -0.2605762     -0.2003328     0.2945291      1.754753E-02   0.2597668      -0.1185776     1.700216E-02   -5.715029E-03  0.2332561      0.1751302      0.1040043      -1.807096E-02  -4.454177E-02  0.2372112      -0.1234443     6.783349E-02   0.1625752      3.016447E-02   -0.2849845     0.1658344      0.2464035      0.1337567      0.2054996      0.1515152      0.259679       -6.395154E-02  -5.342265E-02  -0.1011597     0.2928587      -0.1812708     -6.534319E-02  -0.141261      -8.697776E-04  9.780878E-02   -0.2574816     -0.1349986     -0.2480697     0.2722037      8.424024E-02   -6.369518E-02  0.2314249      0.2367534      -0.1617145     4.217963E-02   3.274941E-02   -6.147954E-02  -0.1654317     0.2732841      0.1614582      0.2719474      0.2254189      0.1597552      -1.528062E-02  -9.370708E-02  0.1591693      -0.2186071     0.1072024      -0.1605609     -0.2245033
0.0615835      2.481155E-03   -0.1502701     -0.2833186     -9.231544E-02  0.135968       -0.1702658     -0.2181127     -0.2222759     -0.2751469     5.083162E-02   0.2257214      -0.1623755     -0.1168132     -1.104622E-02  -5.901204E-02  0.2531968      0.2772027      0.1738914      -0.2097079     -0.2167955     0.1998383      0.2336955      -0.2242535     -4.676953E-02  0.2593956      0.1641667      0.2410097      0.2811558      -5.720947E-02  -0.2138676     -0.2895077     -0.28905       -5.111545E-02  -0.1794031     0.2817085      -0.249406      -0.2904421     9.972627E-02   0.2021329      -5.967186E-02  -0.0420753     -0.0255227     -0.1319349     0.0149201      -0.291816      0.2167394      -5.410932E-03  -1.755697E-02  -7.730585E-02  -8.735859E-02  4.055442E-02   0.1902346      -0.1386431     2.171177E-02   -0.1993982     -0.1689178     8.303312E-02   0.2491971      3.252267E-02   0.1515123      -0.2224708     0.2135115      -0.1416135     0.2439198      0.2289595      -7.114477E-02  0.2473425      0.1210106      0.1139677      -0.3492573     -0.1504873     -7.536789E-02  0.2263876      -0.1643012     -0.1701473     -0.2761883     -0.2790914     -0.2578568     -1.825314E-02  0.1844921      -0.2048304     -0.2806308     -4.282236E-02  -0.2435798     -0.1614454     -0.1577942     -0.1135862     -0.2034984     -0.1329616     -6.045842E-02  0.2837155      -0.2311459     0.1108902      0.1453751      0.1718519      8.627708E-02   0.1498499      4.575323E-02   -0.200291      0.1805988      8.830629E-02   -0.1282758     -0.2069773     2.282197E-02   0.2059485      -2.837399E-02  0.1541167      0.1188789      -0.281992      0.2257001      -0.297214      -0.2488991     0.1651714      -3.690136E-02  -8.435557E-03  -0.2419187     -1.272431E-02  -0.1347405     3.137131E-02   0.1940136      -0.2076092     -0.1348447     -0.2913102     -6.429671E-02  0.1674125      -0.2603754     0.1111145      0.2374428      0.3103023      -0.1185707     -0.1168091     -0.2494046     -7.389679E-02  -0.1700964     -0.1400517     0.2085858      -0.2425033     -0.1730066     -0.1246363     2.322646E-02   0.2422137      0.2030784      3.866093E-02   -0.1819891     -3.540347E-02  0.0174475      0.3005614      2.667213E-02   -7.717695E-02  -0.2450957     -1.335184E-02  -0.2403038     1.029072E-02   0.2526498      0.2057478      0.2252796      7.928047E-02   0.2801098      0.2467694      -0.1754049     0.1022251      -0.2088833     -0.1136999     -2.260243E-02  0.1843176      0.1781368      -0.1328714     -0.2506056     0.0741768      -4.871478E-02  -0.1035884     -0.2314772     0.0305966      0.2209041      0.2629521      -0.2240681     0.2887254      0.3088852      0.2120346      -2.405749E-02  0.2633159      -0.2701906     4.124784E-02   -0.1490357     0.2533891      -0.2014163     0.1596095      2.075965E-02   8.515168E-02   0.1293029      4.983324E-02   -0.2729965     -2.367246E-02  0.1417269      4.813028E-02   0.1337364      -0.1260008     1.517807E-02   5.431515E-02   -0.2324807     1.947791E-02   0.2761383      -3.217584E-02  0.2534763      -0.2839145     0.1504505      -0.2309185     -0.1679075     0.2264047      -0.2151213     -9.825927E-02  -0.1428607     0.1738934      -2.310744E-02  -5.791576E-02  -0.3123886     -0.2316033     1.949331E-02   -8.831386E-02  -7.741575E-02  -5.709743E-02  7.283036E-02   -0.1771443     0.1912368      -3.740506E-02  -0.2486951     -0.2081115     0.3577707      0.2301032      0.2066697      9.177232E-02   -0.1945041     -0.2336469     4.582861E-02   0.2256399      -0.2326757     0.2059336      -0.2451475     0.1109116      0.2922604      -0.1632839     7.095184E-02   0.1428182      -0.1929986     -5.746181E-02  0.1527872      -8.140042E-02  0.2239177      0.1556027      0.2499482      7.651749E-02   0.1975372      -0.1789464     -0.2468247     0.1482143      -0.1601947     -5.433631E-02  -1.737897E-02  -0.2513075     0.1009974      -0.2922668     -0.1737198     0.2780356      -0.1044069     0.1389091      8.442098E-02   0.1357599      0.1014027      -0.2350578     0.2067657      8.819544E-02   -7.553332E-03  -0.2356873     8.218636E-02   -0.270949      -0.1912235     -4.139062E-03  -4.761774E-02  8.610607E-02   -0.303619      -0.2886451     0.266197       -2.870792E-02  -0.1008301     -0.2271218     -0.1104984     0.1932096      -0.136848      7.786146E-02   0.3040871      -0.1956226     5.177887E-02   -0.1469258     -0.2661292     1.191137E-02   0.1237373      0.1373608      0.1037233      -6.960967E-02  -0.1024598     0.1798059      0.211063       -0.2182775     0.0231727      7.142247E-02   0.2894528      0.166805       -0.1014161     0.2855159      -0.2889218     1.150853E-02   0.1625202      0.2250893      3.286844E-03   4.391919E-02   -0.2554125     0.2285134      0.1625385      0.2583056      -0.1457106     -0.14073       -0.1833766     -6.479385E-02  2.078311E-03   -1.528977E-03  0.2785211      8.599811E-02   0.2469161      -0.2413312     -0.1642781
-0.1045386     0.2778253      2.544328E-02   -8.695029E-02  -0.2888668     -0.2204875     -0.1324168     -0.1694784     -0.1786241     -0.1595217     8.705984E-02   2.000504E-02   -0.1199363     -6.305072E-02  0.2227095      0.1036755      -3.158666E-03  -6.358532E-02  0.2098544      0.1064516      -1.798736E-02  -0.1527421     -0.1943632     0.1283433      9.359327E-02   -0.1740685     -2.054925E-02  -4.843204E-02  -4.999128E-02  -0.2101994     0.2053214      0.1881375      4.065981E-02   0.2266457      0.183871       0.1939111      0.2807203      2.548365E-02   -0.109936      -0.1933972     -0.2218788     -0.3242844     -0.1660726     -0.2227206     -5.217665E-02  -5.901916E-02  0.2573351      0.2395734      0.2514766      0.0987635      -0.1092795     -0.2796235     5.340859E-02   -7.656955E-02  -1.697629E-03  0.127741       0.227375       -5.507847E-02  0.1813601      3.087733E-02   -1.011055E-02  0.2902036      -0.1522275     -0.2123145     0.1578928      6.529297E-02   -0.2852434     0.1838055      0.2470247      -2.471787E-02  6.002215E-02   0.1635153      -0.2236833     0.1643612      -0.2739869     -0.1074997     -0.2364315     0.2309848      -0.2131358     -0.2741195     0.156636       -0.3185271     0.2400595      0.2764605      0.1184242      -0.1912352     0.1091024      0.1757532      0.2569776      0.1269722      -0.1907241     -0.0762002     9.885824E-02   -0.171371      5.249338E-02   0.1510398      -5.162254E-02  0.1559801      -0.2740869     0.1693057      -4.514242E-02  -0.2495213     -4.899513E-02  0.1578104      0.2095689      -0.216693      -4.676931E-02  -5.774387E-02  -0.29242       -0.1664137     -0.2809276     0.1825508      0.1553111      0.2420768      -0.1212313     -0.2651044     -0.4011688     -0.3703872     -0.1386682     -0.1746017     0.1514298      -9.741587E-02  -0.200208      0.1153809      0.3785171      -0.1830008     -0.2060506     -0.1103793     0.158927       0.1881162      -0.292585      -0.1462912     2.143154E-02   -8.587781E-02  -0.208106      5.528909E-02   -0.442358      0.1095841      0.2046346      -0.1846626     -0.1723172     -0.231984      -0.0304893     -0.1498554     0.2110477      -0.1637893     0.1264623      1.487229E-02   -8.706906E-02  0.2341691      3.957245E-03   3.575759E-02   0.2097635      -0.1017329     -0.1564639     0.2501245      -2.060825E-02  0.1394207      -0.1640789     -3.012488E-02  2.615457E-03   -0.2140874     4.904289E-02   -0.1549134     -0.110084      0.2172644      2.067905E-02   -0.0774375     0.1892406      0.2582495      0.3303812      0.2224548      8.740752E-02   5.478892E-02   -7.494524E-02  3.023608E-02   -0.2063035     -1.583779E-02  -0.2286935     -0.1647761     -0.1893389     0.1046621      -5.103499E-02  -5.398746E-02  8.146155E-02   2.699604E-03   0.1370457      -2.482875E-02  3.556681E-02   -0.2521399     0.1928423      -8.101282E-02  -0.1203164     -0.2681614     0.1173307      4.554134E-02   5.254062E-03   -2.859022E-02  4.376109E-02   0.1157048      -0.1442078     0.2739148      0.2620928      7.803788E-02   3.618895E-02   0.2910708      -0.1313888     0.2024676      -0.1018917     0.1414961      -0.2583617     -0.1161458     -0.2519449     -6.615153E-02  0.3276694      0.1860763      -0.1289043     0.1252964      5.415479E-02   0.0176385      -0.2105226     3.989954E-03   -1.031784E-02  9.267259E-02   -0.2254555     -0.2005586     0.1598244      -0.3417251     -0.3488829     0.1077323      -7.525067E-02  9.152863E-02   0.1741029      -0.1795325     0.1603384      0.1742451      -7.146314E-02  -0.2702431     -0.1116045     -8.228775E-02  -5.589627E-02  -0.1968371     -4.664179E-02  -0.2191323     0.1219401      0.1126032      -0.1732268     0.2660942      -0.1057371     -8.224159E-02  -0.1918677     -0.2495519     -0.2990078     1.536088E-02   4.138371E-02   0.1030309      0.1791284      -0.244386      0.1245515      -0.1423522     0.1744946      -6.663889E-02  -0.2640153     -2.494131E-02  0.1436891      0.341633       0.212256       0.1965279      -5.495026E-02  -0.1241658     0.1552499      0.1925504      -9.947509E-02  -0.1323584     -0.216991      -0.1489736     0.1456521      0.1577784      0.2879115      -8.438124E-02  0.1852555      -0.2498858     -0.1724052     0.221539       -0.2243385     7.975402E-02   -0.2455245     0.1000427      0.1352001      -3.076694E-02  0.1070042      -3.010959E-02  0.1695002      -0.1549945     0.1461865      0.2026032      0.193997       -7.278665E-03  -2.932524E-02  0.102881       -5.895261E-02  0.2279275      0.2320109      -0.1384228     1.315653E-02   -8.055972E-02  0.1325999      6.942656E-02   -0.2383648     -0.1633076     -0.2870907     0.1028077      -0.2673147     8.560442E-03   0.2026582      -0.2322855     9.194922E-02   -0.2189184     -0.1464248     -0.2176367     -0.1671529     2.348399E-02   -0.1716758     -7.791376E-03  8.792078E-02   -7.440718E-02  0.2137547      -8.900113E-02  0.1614033      -0.2688162     0.1276193
-0.2889042     0.1174566      0.2908994      -0.1156621     0.2870541      -0.2034026     3.642995E-02   3.754693E-02   -0.1749894     -0.1580569     0.1663332      6.264646E-02   0.1621578      0.1798041      2.016508E-02   -0.2439987     -8.477127E-02  -0.0018952     0.1530717      0.203647       0.0855474      -3.514817E-02  0.1335154      0.2877518      -0.1667547     0.10015        -0.2735607     -0.1693948     8.735147E-02   8.082797E-02   -0.1255624     0.1727195      0.1309153      1.621448E-02   -0.125605      0.2284465      0.2533594      0.2107861      -0.1187037     -2.944041E-02  -0.2825283     -6.123527E-02  -0.266192      -0.0241361     -4.672713E-02  7.748961E-02   -0.1202765     0.2745109      0.1135736      0.1164668      0.1366321      -5.867052E-02  8.366656E-02   4.490017E-02   0.266682       -0.1776269     -0.1363537     -6.145994E-02  -0.2307378     0.3362181      0.0578785      -0.2301981     -0.130403      -9.024619E-02  -0.2930545     0.1896836      1.457898E-03   6.540772E-02   -0.1142882     0.1195369      0.1066496      -0.2165272     -0.1678854     -0.1486721     8.346891E-02   7.884628E-02   0.18273        0.159383       4.332369E-02   -0.311123      -0.1497169     -9.792132E-02  2.125469E-03   -0.1165828     -0.1633848     -0.3514403     7.746365E-02   1.580768E-02   0.3562025      -0.2096633     0.3047835      0.1809684      7.268716E-02   0.1691676      -0.3351146     -0.0246457     -2.330204E-02  -7.006554E-02  0.223166       -0.1541769     -0.1491592     -0.3836066     -0.2880844     -5.217662E-02  0.1885341      -9.604558E-02  -0.2299534     -0.1528976     3.364684E-02   0.3423635      -0.2345449     0.3580253      -6.88806E-03   0.1455123      -0.2566752     -0.1482253     -9.117191E-02  0.3149138      0.2622941      0.1882497      0.17481        -0.2356475     0.2411274      -3.224067E-02  0.1826104      -0.2051856     0.2247367      0.1766065      0.2750147      1.900865E-02   0.2397987      0.2687061      0.1133187      0.0181978      0.1484534      0.2729512      -3.166578E-02  -3.679254E-02  -0.1404873     0.3442324      -8.588036E-02  0.3462066      5.809717E-02   -7.327674E-02  0.3604426      0.202573       0.2557875      0.3308529      0.3702709      0.2295825      -6.696401E-02  0.1932551      1.726603E-02   -0.1766231     0.2740494      0.2292601      6.901167E-02   0.3191082      0.3276429      -6.50767E-03   0.1312624      -0.246235      5.362186E-02   0.3360388      -0.057525      -1.666328E-02  -0.2175092     0.1974037      0.1070355      0.1853069      -0.3110896     -7.063908E-02  0.2227274      -5.858827E-02  0.2111646      -0.2730723     0.0724313      0.1266762      0.4321103      -2.610909E-02  -0.219096      -0.1019712     0.198085       -0.205836      -0.1585293     5.13435E-03    5.740048E-02   0.1681859      -0.1418973     -0.1032983     -8.777556E-02  0.2403727      -1.962043E-02  8.468468E-02   9.217039E-02   -5.393034E-02  -0.1748367     0.2156131      0.1159755      0.1569088      0.2329511      -0.1575015     0.1415026      0.1553826      -0.1128578     -8.517111E-02  0.1418569      -0.2123454     0.2290379      0.1024878      0.2463176      -0.1974571     6.051015E-02   -0.1868617     7.357228E-02   4.858215E-02   -8.810186E-02  -3.372066E-02  -0.2209947     -0.2314045     -9.455352E-02  -0.191878      -0.1244116     0.1841354      -0.1525483     -0.1322775     -0.2523179     -0.1104227     5.987008E-02   -0.1786551     -2.161425E-02  0.0194245      6.235173E-02   -1.112122E-02  -0.1676941     0.1341476      -0.3730068     0.1791654      0.2678217      0.2987518      2.131417E-02   7.851458E-02   6.838385E-03   -0.1360941     0.2341213      -0.2702956     -0.3201059     -0.3931319     8.926064E-02   6.812733E-02   0.2515808      2.927799E-03   0.2938771      8.639988E-02   0.1369801      -0.1281504     -0.1814722     0.1273347      2.276303E-02   -0.3005612     0.1275647      2.869648E-03   -0.1943917     0.1968437      -0.349836      0.1338214      0.3520294      -0.1947843     0.3195053      0.1607848      -0.1217422     0.1548845      0.2148167      -0.116878      -0.1373241     -0.1226315     0.233574       -6.025713E-02  0.1795196      5.752418E-02   7.707614E-02   -0.2712065     -0.2370509     0.2503427      -0.1759056     -0.2102206     5.923643E-03   3.187048E-02   -0.2311503     0.1483687      0.1408689      -5.290019E-03  -0.1566134     -0.1381954     -6.769681E-02  -5.578478E-02  -0.2173803     6.332896E-02   -1.407209E-02  0.2649159      6.988434E-02   -3.170568E-02  -0.1420484     -0.2670034     -0.240727      -6.356701E-02  0.2234047      -0.1033937     6.120487E-02   -0.2084994     0.1900784      0.0638783      4.979705E-02   0.2335673      -6.592914E-02  -5.356914E-02  0.2645131      0.0406415      7.612842E-02   -0.2136082     -0.2403974     2.621235E-02   0.2903684      8.649251E-02   4.565874E-02   -0.1786706     -6.083865E-02  -0.2386029     0.2664357      0.2501023      0.2281655
-0.2467143     0.2548814      -0.2677175     0.1183721      8.857998E-02   -0.248813      0.2246498      -0.1930448     -0.1665957     -5.510589E-02  0.2439621      -3.564623E-02  0.2948008      0.1486406      -0.1405236     7.369898E-02   0.1922025      0.129487       -0.1582537     0.2353435      0.307587       0.1247078      -0.2832087     -0.2653296     -7.625489E-02  0.2485155      0.2789188      2.437853E-03   0.318202       0.142361       0.1443792      -0.1373241     -0.2914304     -0.20524       -1.035493E-02  -5.899724E-02  -5.571835E-02  0.2265664      6.862249E-02   1.674674E-02   0.0982319      0.3473728      -0.2480315     -0.1398241     0.1759986      5.839124E-02   -0.1374889     8.751793E-02   1.851774E-02   2.886352E-02   -0.1159008     -0.0598563     0.1721584      4.539299E-02   0.229545       0.1840011      -7.012077E-02  2.796839E-02   0.1769661      -0.2467971     -0.1548243     0.1235542      0.2752211      -8.052617E-02  0.1804481      -0.2454783     0.2877174      9.641033E-02   -0.1586083     4.169395E-02   -4.862349E-02  -3.421114E-02  1.552123E-02   6.696069E-02   -0.2847008     8.440648E-02   -3.320975E-02  1.597944E-02   0.3233169      -0.1515803     7.027836E-02   -3.181672E-02  -8.312473E-02  -5.742444E-02  0.2493721      -0.1125506     0.151201       -0.2803103     0.2378904      -4.469424E-02  -0.2461367     -0.0223385     0.1134735      -0.2248188     9.941967E-02   -0.2040936     -0.197628      0.2817127      0.2682616      -0.2607462     2.235776E-02   0.2072936      -0.1688227     0.2129592      -9.773897E-02  -0.1034147     -0.2261157     -0.2376902     -0.0761809     -0.1227003     0.1213424      -0.0494207     0.2704975      0.3238822      7.861748E-02   0.1826055      0.266714       -0.1895442     -7.793938E-02  0.1801021      -0.2563379     -0.2055981     -0.1751559     -0.153475      0.2092774      -4.197413E-03  1.383664E-02   0.1666586      0.2056572      0.1993773      0.2692536      0.1798225      0.1677351      0.2152489      0.1779726      -1.896497E-02  -0.1887853     -0.2805023     0.2799526      -4.333647E-02  0.2387401      -0.2314067     -5.530356E-02  0.2377099      -9.73984E-03   6.861731E-02   1.584192E-02   -2.827837E-02  -0.1903355     -0.1571449     0.1576248      -0.2096739     -0.2168576     0.1995952      -0.1386909     -0.1589618     0.1966863      9.030368E-02   0.2368593      0.2709452      0.3216694      -0.1621068     2.315502E-03   -0.1675196     -8.940914E-02  -0.243215      -8.815581E-02  -0.15004       5.463351E-02   -0.1732598     0.2925676      -0.2106868     -0.236906      -1.694353E-02  -3.500933E-02  8.21589E-03    -0.1250612     0.3089677      0.2617535      0.1502683      0.2276343      5.963789E-02   7.016398E-02   -0.116448      0.1130447      0.0820233      0.3378866      0.2550583      0.2464956      0.1132576      0.3613834      0.2264907      -0.1959758     0.2615213      -0.1875307     -7.769199E-02  -0.1862017     0.1908167      -0.1720105     0.2212436      -0.2225471     -4.208994E-02  -8.930156E-02  -0.3076041     0.2550693      -0.1966223     0.3214416      0.1853881      4.394586E-02   4.837039E-02   0.2575582      0.1410576      -0.1808271     0.149336       4.046955E-02   -0.3296612     0.118623       -0.2673177     0.2409029      -0.1462681     0.1329246      0.217214       0.1006924      0.2696222      9.673608E-02   -0.2363975     -4.532128E-02  -0.2584194     0.1294022      -7.236572E-02  0.2463437      7.591017E-03   -5.348284E-02  5.967018E-02   0.1209247      9.470931E-02   9.516681E-03   -0.2168949     0.3271608      -0.1360323     -0.1382811     0.23578        -0.1877329     -9.860793E-03  -0.1784015     1.500596E-02   0.185069       0.219091       9.588145E-02   9.781463E-02   0.1568754      0.1413072      0.1259579      -0.263683      -0.2154764     -0.277389      0.1021668      -0.3063595     0.2387117      -0.2262952     0.1052623      0.2873532      0.1390517      6.457598E-02   0.2541192      9.742704E-02   -4.307165E-02  -0.2632395     4.832809E-02   0.1009005      0.209334       -9.332255E-02  -6.338389E-02  5.056926E-02   0.1238599      7.324219E-02   0.2600675      0.2238901      1.634347E-03   0.1697327      0.1189246      -0.1706536     8.949335E-02   -0.196102      -0.2575549     -0.2492966     0.138789       7.552416E-02   -9.493393E-02  -3.773013E-02  -0.2049804     3.509656E-03   -0.2031676     -3.234341E-02  0.1197482      -9.750664E-03  0.1579241      -2.169866E-03  0.0978454      0.1974944      -0.2910459     -4.282052E-02  0.2962096      -8.674887E-02  0.16545        9.914549E-02   -2.560808E-02  -0.167391      -0.1968535     0.2567309      0.2213538      -0.1811976     0.1612751      -0.1301645     1.339457E-02   4.831386E-02   -0.187167      -0.1445204     0.2601184      0.1043092      -9.073153E-03  -0.1898038     -4.681234E-02  -0.1382214     -0.2604297     -6.120487E-02  3.644826E-02   -0.2917783     -4.205146E-02  2.865688E-03   -0.2835749
6.909732E-03   -0.1860317     -0.251146      -0.2143956     -0.2678091     3.644107E-02   -0.1499588     7.936949E-02   -0.1703376     8.735213E-02   -0.3236151     0.1753352      -2.734633E-02  0.1882014      2.075179E-02   -0.2974495     -7.563403E-02  0.1826441      -9.409162E-02  -0.1103519     6.041059E-02   -6.957305E-02  -0.1281137     3.707078E-02   -2.128805E-02  -0.3297635     -0.22842       8.753373E-02   3.728244E-03   2.660324E-02   2.462209E-02   7.305216E-02   0.2710135      0.2701895      0.1999298      7.996702E-02   6.216922E-02   -0.1375145     3.957317E-02   -0.116597      -0.2541218     -0.3741231     -0.182382      0.114496       -0.1988258     -0.2472418     -0.1833216     -8.737145E-02  3.112532E-02   8.334883E-02   -0.168588      0.1494682      0.207223       0.2017578      -0.2769002     -0.2508081     7.835867E-02   0.0681335      -0.293666      -6.439563E-02  -1.936134E-02  -0.1517167     0.2080846      -0.2293816     -0.1841739     -0.299148      -0.1696179     1.587919E-02   -0.1402833     0.1328203      -0.3311405     0.2943213      -0.1843234     0.0354325      -0.2499563     -0.1062088     -0.1229642     0.2898635      0.1459278      8.163939E-02   -0.2433462     -0.4594393     0.1312016      -0.1814841     -0.145386      -4.789405E-02  -0.1801729     6.425799E-02   0.2494864      -0.2502861     0.1375773      0.1724483      -9.604859E-02  0.2242846      -3.221858E-02  9.633279E-02   -0.1638332     -8.253378E-02  -0.2672576     -0.3163556     0.2613072      0.2190312      -7.789891E-03  0.1444093      -0.1628353     -0.3183725     -9.283728E-02  7.080791E-02   -0.1273634     0.1589372      -0.1816864     0.0443662      6.468197E-02   0.3892753      0.1175214      7.896591E-02   0.1512975      0.2128451      1.160468E-02   3.098952E-02   1.570765E-02   -8.661504E-02  -0.1509846     -0.2712382     -3.581741E-02  6.748795E-02   0.3736268      1.064177E-02   0.3316127      0.2190252      4.851125E-02   0.445481       0.1223766      -0.1593785     0.1748912      0.1363853      0.2005814      6.893445E-02   -0.1127706     0.2911596      0.1223352      0.3176789      0.3893606      0.488915       0.3243444      0.2865486      0.2186599      1.009235E-02   9.855041E-03   -0.1338239     0.0377128      -3.135072E-02  -3.723229E-02  -0.3332802     -7.534922E-02  0.1052425      0.1165241      0.2938838      -0.1946678     -0.2806195     0.195594       0.2914963      0.2222777      -0.1307576     9.703727E-02   0.2043854      -6.528209E-02  8.699775E-02   0.3191242      0.4163314      0.1179267      0.4244648      -0.1276355     -0.1953923     -8.57476E-03   -1.262995E-02  9.182429E-02   -4.973093E-02  -5.787305E-03  8.030033E-02   0.1575329      0.1698322      0.296282       -0.2511629     0.3465457      8.092004E-02   5.361407E-02   0.1392054      -0.1681221     0.2878123      1.450829E-02   -0.129816      -0.2121793     0.1065751      -0.3197773     -0.1790549     8.477289E-02   -0.3068303     -0.1106027     0.1520696      0.25903        0.2325753      -7.351462E-02  0.2026535      3.967014E-02   -5.708991E-02  0.2430952      0.3331085      0.3179106      0.2022137      -0.1566847     -5.246533E-02  0.0123073      -7.800625E-02  -0.1212051     3.477398E-02   0.1222883      0.1296144      -0.2111321     -0.2318064     -0.2567762     8.114329E-02   0.1793244      -0.2150929     -0.1578137     6.648414E-03   0.3237031      -0.1903449     -2.974742E-03  -0.1547873     0.3407696      2.925983E-02   -0.1368365     -5.584066E-02  0.1670693      0.1079         9.257845E-02   -3.006323E-03  0.2306443      8.265655E-02   -0.2889713     -3.295802E-02  -0.2278998     8.307021E-03   -0.1153405     -0.2705753     -7.736444E-02  -3.578819E-02  -5.694918E-02  9.277176E-02   0.3945741      -0.1062103     2.779366E-02   5.614739E-02   -9.808287E-02  0.1007471      0.2238624      -9.560078E-02  4.321405E-03   -7.950162E-02  3.703538E-02   -0.135442      6.925629E-02   0.2738736      0.5071788      0.4435616      0.4631691      0.258327       0.3516781      0.1864056      -0.2381931     3.994568E-02   -0.2633229     -0.2487022     -0.1609444     -0.2860343     -3.905379E-02  -0.2397323     -0.1202641     -1.305382E-02  0.1389295      0.2437772      -0.1970624     -4.621167E-02  -0.1956816     -5.384381E-02  0.2999634      0.1386242      -0.274456      0.2953604      -0.2700715     -0.1989507     5.780812E-02   -6.677496E-02  0.229279       -9.590442E-02  0.2898007      -0.1136662     0.1713096      -0.1276376     -0.1957915     6.794336E-02   0.1856655      -9.328593E-02  -0.2646413     0.1789819      9.901731E-02   0.2037019      -0.1648274     0.1078616      -9.262673E-02  -0.2896359     0.1011597      0.2143407      0.2680655      0.2635426      -0.259679      0.2942686      3.686941E-02   8.462477E-02   0.1654317      -5.303812E-02  0.0970214      -0.1006287     -0.1826808     -0.2357647     0.2234047      0.2507797      0.1074404      5.950194E-02   0.0264687
-0.1929783     -9.843135E-02  1.480453E-02   -6.309092E-02  0.2484909      -0.2354953     -0.1191595     -0.2358562     -0.224594      -3.567672E-02  -1.754713E-02  0.2990786      0.2776065      -0.1357855     0.323049       -0.2383998     -0.2397015     0.1915983      -0.0330607     -0.179165      -0.1751964     -0.111945      -2.496719E-02  -0.2192655     0.2476341      -7.879861E-02  0.3527918      0.3521217      0.2908655      -8.716481E-02  -0.1429988     6.678976E-02   0.27528        0.1522111      0.2515305      -1.174921E-02  0.0615104      -0.1127196     -6.605635E-03  -1.234861E-02  0.1299146      0.0639746      0.1096358      0.353932       -2.272725E-02  4.284174E-02   -0.2107151     -0.1082095     -0.151993      -7.949954E-02  0.2321643      1.818406E-02   -0.235805      -7.947132E-02  0.2306709      -0.2260053     -6.516177E-02  0.1129887      0.3559509      -7.055026E-02  -0.2221029     -7.512131E-02  -0.2878609     0.1532691      -0.1365142     -0.2088648     0.1090674      -0.2922498     -0.2695454     -0.1586563     6.548814E-02   0.320008       -0.1981025     0.3130241      0.1953433      -6.692104E-02  -0.2513262     -3.124618E-02  0.135302       0.1741219      0.252175       0.0921453      -4.254411E-02  -3.378936E-02  -0.1256511     0.1305437      -3.231524E-02  0.1570141      -0.2731434     -0.1100873     0.1756997      0.1132293      -4.101845E-02  -0.3044682     -0.3514201     -0.2191244     2.215958E-02   -0.3107196     -9.485517E-02  -0.1476244     -0.293899      3.753082E-02   -2.792078E-02  0.2818695      0.1001949      0.1966333      -1.875164E-02  0.1061048      5.859877E-02   -0.0169012     -5.417782E-02  -1.623101E-02  -8.031092E-02  -1.582269E-02  -0.1929455     9.547537E-02   0.1122993      -0.1126623     8.941061E-02   -0.2972862     0.1339431      0.1636619      -0.1097748     -9.549458E-02  1.192947E-02   0.1985327      0.1453521      0.1850467      0.1112174      0.1738733      0.179139       0.2814598      0.1553419      0.2043158      -0.2471575     -0.1843305     -0.1106872     0.1736621      0.3331533      0.1277744      0.2444256      0.2722676      4.178614E-02   0.252115       0.5035211      0.2069445      6.209354E-02   -3.141874E-02  -0.1211556     -0.1298225     -0.2258855     0.2627302      0.1525518      -0.120445      -9.965485E-02  0.174654       1.087503E-02   -0.1323779     0.1540074      -9.345839E-02  0.3911145      0.1451758      0.3397041      0.1968905      -1.130675E-02  0.125566       -0.1113249     0.0489815      2.922774E-02   0.1955206      0.164963       0.1307763      9.310887E-02   -5.427356E-02  -0.1828786     0.1921288      -9.780838E-03  0.2281976      0.268322       -0.2103567     -5.174727E-02  0.1996286      4.169779E-02   0.2185195      0.1456734      -0.1963609     0.1918537      2.645405E-02   0.2421101      -0.1601012     9.500643E-02   6.433333E-02   4.735363E-02   0.326289       -6.971437E-02  3.741303E-02   -4.171841E-02  0.1496877      0.214286       4.960096E-02   -0.1477934     6.708445E-02   0.1393942      -9.806715E-03  0.1405769      -0.245175      0.1454614      -4.815235E-02  -0.1957398     2.087839E-02   4.490365E-02   -0.2138786     0.2246847      -0.1378268     -0.120956      -0.209538      -3.883791E-02  0.1196337      -0.2756953     0.2111273      -0.2521624     -7.185431E-03  0.118848       -0.2709635     -3.529897E-02  6.180611E-02   -7.924929E-02  -0.1642619     -8.844887E-02  0.187341       -5.188204E-02  1.764095E-02   0.1354598      0.3441986      -0.1498344     -0.1160072     0.151702       0.2322479      -0.2541032     -0.27275       -0.1611965     -9.741601E-02  4.696828E-02   0.3569795      0.1340065      -0.2242109     0.2170669      -7.156539E-02  0.1235939      -0.1994077     0.1352152      0.1959232      -5.762189E-02  8.537297E-02   -0.1045017     0.2398444      -0.2935545     0.1973818      0.2938178      0.289871       0.1783895      -5.828175E-02  -8.206151E-02  -0.1716804     -6.610679E-02  0.2713428      -9.628447E-02  0.2770483      0.266399       -0.1507163     1.772753E-02   0.258507       0.2615833      4.287893E-02   0.1515531      -0.2444314     -0.0281388     -4.393097E-02  -0.2248369     0.2240972      0.1788765      -5.389598E-02  -0.1243459     -0.2671106     -0.1557817     0.171456       0.1735984      -6.710105E-02  5.457625E-02   -0.1740093     -0.1237155     0.2529257      0.1080116      -0.1710964     -0.1453876     0.1129887      -0.22313       -0.148146      -2.311777E-02  -5.604114E-02  0.1135014      8.079775E-02   -0.2526475     7.072665E-02   -0.2056612     -0.2915586     -5.100559E-02  -4.214301E-02  -7.389447E-02  7.296976E-03   0.1054811      0.2542405      0.1707602      -4.071474E-02  -0.2139012     5.062106E-02   -0.170925      3.661306E-02   -0.2306009     0.2696951      2.683493E-02   -2.562639E-02  -6.841945E-02  -0.2178381     -0.1774804     0.0787286      2.817164E-02   -5.697501E-02  -0.2448103     -0.2856075     0.2379437
-0.2153702     -0.1929899     -4.391919E-02  -0.2592944     8.248238E-02   -8.481607E-02  0.1362804      -2.776879E-02  0.0101108      -0.2119847     0.0685327      0.1781016      0.163291       9.148261E-02   2.656821E-02   -0.1883274     9.041109E-02   0.2286416      -0.2093783     0.2180212      0.2027594      0.2990478      -0.189584      -0.2722141     -0.1581684     -0.2388971     0.2129871      0.1910446      -0.1574988     -0.2470454     4.876563E-02   0.1139042      -0.2457259     5.671865E-02   0.2980224      1.594788E-03   0.2748783      -8.691427E-02  -0.2473822     0.1445875      0.1978045      -0.2001448     -0.1307989     -0.2197829     -0.1492274     -6.176033E-02  0.2381634      -5.007172E-02  -0.1847074     0.1732198      0.1837582      0.129916       0.2714866      -0.154181      5.918122E-02   -0.1922512     0.2603866      0.1088987      0.2660274      0.1941353      -0.1734954     -0.1833766     0.1294379      6.055727E-02   -2.605858E-02  0.3176372      0.1431007      0.1979799      6.626979E-02   -0.2350544     8.120272E-02   -0.1114335     0.1837329      0.1188394      -0.1542984     0.2180746      0.2661729      -7.836781E-02  -0.1240233     0.2677832      0.2480021      0.2530583      0.2463774      0.1144816      -6.099697E-02  0.2619743      -5.772213E-02  -7.740057E-02  -0.2067218     0.2319831      -0.2205597     0.1277392      0.1924155      -0.2147468     4.738222E-02   -5.561436E-02  1.436238E-02   4.790584E-02   -0.2671537     -0.2592468     -0.2797731     0.1813122      -0.1206221     -0.0353093     -0.1705358     0.2030573      -0.1536157     0.1490927      -0.1326809     0.2355293      0.1707159      0.1710242      0.2435333      -0.1392313     0.27504        -8.515117E-02  0.2188334      1.411789E-02   -0.2542194     0.2345587      0.2881491      -0.2452886     0.2636213      -0.1217991     -0.1218236     0.2034078      -0.304094      -5.163128E-02  -0.1365529     -0.0933064     1.839142E-02   -0.1538087     -0.251484      -0.1433894     0.2146985      -0.21616       -3.264244E-02  -9.980167E-03  -3.549926E-02  5.946828E-02   -0.1991968     9.581225E-02   -0.2676088     0.1245912      -1.502984E-03  -0.2224188     0.1765579      -6.343618E-02  0.160055       -0.2262536     8.775055E-02   -8.302191E-02  2.423863E-02   0.1680749      -0.2501313     -0.1045996     -0.1508606     0.226982       0.2061261      0.2199498      -0.1829839     -0.1347205     -0.2072817     0.2171555      2.157665E-02   7.430231E-02   0.1989516      0.3242023      -0.1867871     -7.523651E-02  -0.1704094     -0.1413218     -0.1565077     0.1911506      0.2554583      -0.2149913     0.2472922      -0.1611294     6.309156E-02   0.2004872      0.1208687      0.2196579      -0.2291813     -0.1233707     0.1878513      -0.2457126     7.611033E-02   -0.3102074     -0.2060115     0.2629592      -3.356242E-02  -0.1299226     -7.603192E-02  -0.0129283     -5.591768E-02  -0.1198343     -0.1374316     -4.647765E-02  5.532697E-02   -0.1876241     -0.2649235     -2.424254E-02  -6.680154E-02  -0.1969719     7.529581E-02   0.1949253      0.0627566      -0.206341      -3.115772E-02  7.265791E-02   0.137571       8.195776E-02   -0.2629887     9.674834E-02   -0.2706001     0.1623759      -0.2391711     -1.626932E-02  0.2718599      -3.358731E-02  0.1839261      -0.1214877     -0.1765208     -0.1653132     -0.1343589     3.807636E-02   -1.961005E-03  -0.2448636     0.2267053      7.056845E-02   -0.2572263     0.1571616      0.1674183      -0.1704926     0.156738       -0.11164       0.1732155      0.1141903      -0.1027418     -3.534138E-02  -0.0470762     0.192545       0.1485008      0.2551905      0.1124161      1.433455E-02   -0.2618947     2.436888E-02   3.132673E-02   0.1821994      4.332725E-02   -0.267109      -8.311923E-02  5.955848E-02   -0.2421024     6.212435E-02   -0.2803339     -0.1012452     -7.019036E-02  -0.1871434     1.409675E-03   -1.559213E-02  -0.1275004     -0.1897128     -0.3335982     -0.1047815     5.407516E-02   -0.1806715     0.1983226      6.525772E-02   -0.2673209     -0.105591      -0.2531785     0.1008596      0.1261931      -0.2010839     0.2404701      -0.2663427     -0.1138149     0.2862698      -4.394626E-02  -0.1640988     1.931688E-02   -7.594761E-02  -0.2807367     0.2221046      0.2719108      -0.1977325     -0.2374859     -0.1055565     -0.2227523     -0.0620179     0.1897419      0.2493469      0.2182729      0.215952       -2.838222E-04  -0.159151      2.134159E-02   -1.913511E-03  2.975555E-03   -2.549822E-02  -5.611439E-02  0.2045076      0.2089389      9.491562E-02   0.15721        0.178872       0.1103702      -0.1287912     0.2552477      -0.1958831     0.2575732      7.389447E-02   0.2062655      -0.2952391     0.2828242      7.351909E-03   -6.334727E-02  -0.1482193     0.2169408      -0.2329814     -0.2592578     0.1890347      0.2410382      0.2897824      -0.1891995     2.746666E-05   -0.2821467     -0.1334971     -0.1195807
